{"learner":{"attributes":{"best_iteration":"116","best_score":"0.00370533128258394","scikit_learn":"{\"_estimator_type\": \"classifier\"}"},"feature_names":[],"feature_types":[],"gradient_booster":{"model":{"gbtree_model_param":{"num_parallel_tree":"1","num_trees":"137"},"iteration_indptr":[0,1,2,3,4,5,6,7,8,9,10,11,12,13,14,15,16,17,18,19,20,21,22,23,24,25,26,27,28,29,30,31,32,33,34,35,36,37,38,39,40,41,42,43,44,45,46,47,48,49,50,51,52,53,54,55,56,57,58,59,60,61,62,63,64,65,66,67,68,69,70,71,72,73,74,75,76,77,78,79,80,81,82,83,84,85,86,87,88,89,90,91,92,93,94,95,96,97,98,99,100,101,102,103,104,105,106,107,108,109,110,111,112,113,114,115,116,117,118,119,120,121,122,123,124,125,126,127,128,129,130,131,132,133,134,135,136,137],"tree_info":[0,0,0,0,0,0,0,0,0,0,0,0,0,0,0,0,0,0,0,0,0,0,0,0,0,0,0,0,0,0,0,0,0,0,0,0,0,0,0,0,0,0,0,0,0,0,0,0,0,0,0,0,0,0,0,0,0,0,0,0,0,0,0,0,0,0,0,0,0,0,0,0,0,0,0,0,0,0,0,0,0,0,0,0,0,0,0,0,0,0,0,0,0,0,0,0,0,0,0,0,0,0,0,0,0,0,0,0,0,0,0,0,0,0,0,0,0,0,0,0,0,0,0,0,0,0,0,0,0,0,0,0,0,0,0,0,0],"trees":[{"base_weights":[4.938046E-5,1.9805182E0,-1.9738147E0,6.961284E-1,1.9965445E0,-8.0213463E-1,-1.9872738E0,8.499594E-1,-1.4713584E0,1.4611459E0,9.998414E-2,-7.421875E-2,-1.1607424E0,-1.8244112E0,-1.9970808E0,5.820629E-1,1.5245298E0,4.278075E-2,-1.7434908E0,-3.156708E-2,1.6321572E0,3.062458E-1,-1.5321337E0,-9.1707563E-1,-1.7164222E0,-1.845153E0,-1.5333215E0,-1.936325E0,-1.9988197E0,6.433625E-1,-9.91342E-1,1.6197573E0,-7.5126904E-1,-9.4736844E-2,8.939394E-1,-1.866242E0,-4.9484536E-1,-5.02809E-1,1.8531073E0,1.7042646E0,-9.339623E-1,-2.8117913E-1,1.6193922E0,-1.6845944E0,8.055556E-1,-1.2958765E0,3.2116005E-1,-1.8436657E0,-1.3356009E0,-1.7936131E0,-1.9311868E0,-7.2031075E-1,-1.9148158E0,-1.9400213E0,-1.6884422E0,-1.9832215E0,-9.998577E-2,7.250997E-2,2.5145793E-2,-6.570744E-2,9.361702E-2,7.363449E-2,9.977134E-2,4.6774194E-2,-7.591241E-2,9.6551724E-2,-5.1063832E-2,-9.824798E-2,-7.376238E-2,4.5238096E-2,-7.7192985E-2,6.983471E-2,-7.394068E-2,9.808917E-2,4.0909093E-2,8.702506E-2,-4.1121494E-2,-9.808917E-2,9.4736844E-2,1.6827935E-4,-6.1657306E-2,9.0368055E-2,-3.17757E-2,-4.597701E-3,-9.081028E-2,-2.8125001E-2,9.2857145E-2,3.8362067E-2,-6.887485E-2,4.551148E-2,-8.290398E-2,-6.635945E-2,-9.441646E-2,-3.960177E-2,-9.467593E-2,-9.3497425E-2,-8.7019645E-2,-9.669295E-2,8.6363636E-2,-7.9841115E-2,1.932246E-2,-2.1428572E-2,-9.648799E-2,-9.7113095E-2,-7.809918E-2,9.189189E-2,-9.590747E-2,-9.794417E-2,-9.9753E-2],"categories":[],"categories_nodes":[],"categories_segments":[],"categories_sizes":[],"default_left":[0,0,0,0,0,0,0,0,0,0,0,0,0,0,0,0,0,0,0,0,0,0,0,0,0,0,0,0,0,0,0,0,0,0,0,0,0,0,0,0,0,0,0,0,0,0,0,0,0,0,0,0,0,0,0,0,0,0,0,0,0,0,0,0,0,0,0,0,0,0,0,0,0,0,0,0,0,0,0,0,0,0,0,0,0,0,0,0,0,0,0,0,0,0,0,0,0,0,0,0,0,0,0,0,0,0,0,0,0],"id":0,"left_children":[1,3,5,7,9,11,13,15,17,19,-1,21,23,25,27,29,31,33,35,37,39,41,43,45,47,49,51,53,55,57,59,61,63,-1,65,67,69,71,73,75,77,79,81,83,85,87,89,91,93,95,97,99,101,103,105,107,-1,-1,-1,-1,-1,-1,-1,-1,-1,-1,-1,-1,-1,-1,-1,-1,-1,-1,-1,-1,-1,-1,-1,-1,-1,-1,-1,-1,-1,-1,-1,-1,-1,-1,-1,-1,-1,-1,-1,-1,-1,-1,-1,-1,-1,-1,-1,-1,-1,-1,-1,-1,-1],"loss_changes":[5.8581725E5,1.539375E3,1.1831562E3,3.075155E2,1.2346875E2,2.2242743E2,1.1775E2,1.5531427E2,2.5353561E1,1.1021246E2,0E0,1.5636877E2,7.6906494E1,2.483496E1,6.625E0,5.9499496E1,5.3217896E1,1.54887085E1,7.6187286E0,3.9347046E1,7.1817505E1,1.7246594E2,2.1019882E1,1.86514E2,7.8601074E0,1.6729492E1,8.6861755E1,1.0981445E0,1.5625E-1,6.699701E1,2.154424E1,1.2334534E1,1.2943295E1,0E0,1.3397511E1,1.1840668E0,7.324402E0,6.621444E1,5.568714E-1,3.4692993E1,3.119682E1,4.1933285E1,2.9520233E1,1.1289566E1,5.4129963E0,5.1417084E1,1.0862235E2,2.4231873E0,1.2955452E1,9.319824E0,1.4746582E1,8.758768E1,3.9314575E0,9.746094E-1,2.4539421E1,2.8222656E-1,0E0,0E0,0E0,0E0,0E0,0E0,0E0,0E0,0E0,0E0,0E0,0E0,0E0,0E0,0E0,0E0,0E0,0E0,0E0,0E0,0E0,0E0,0E0,0E0,0E0,0E0,0E0,0E0,0E0,0E0,0E0,0E0,0E0,0E0,0E0,0E0,0E0,0E0,0E0,0E0,0E0,0E0,0E0,0E0,0E0,0E0,0E0,0E0,0E0,0E0,0E0,0E0,0E0],"parents":[2147483647,0,0,1,1,2,2,3,3,4,4,5,5,6,6,7,7,8,8,9,9,11,11,12,12,13,13,14,14,15,15,16,16,17,17,18,18,19,19,20,20,21,21,22,22,23,23,24,24,25,25,26,26,27,27,28,28,29,29,30,30,31,31,32,32,34,34,35,35,36,36,37,37,38,38,39,39,40,40,41,41,42,42,43,43,44,44,45,45,46,46,47,47,48,48,49,49,50,50,51,51,52,52,53,53,54,54,55,55],"right_children":[2,4,6,8,10,12,14,16,18,20,-1,22,24,26,28,30,32,34,36,38,40,42,44,46,48,50,52,54,56,58,60,62,64,-1,66,68,70,72,74,76,78,80,82,84,86,88,90,92,94,96,98,100,102,104,106,108,-1,-1,-1,-1,-1,-1,-1,-1,-1,-1,-1,-1,-1,-1,-1,-1,-1,-1,-1,-1,-1,-1,-1,-1,-1,-1,-1,-1,-1,-1,-1,-1,-1,-1,-1,-1,-1,-1,-1,-1,-1,-1,-1,-1,-1,-1,-1,-1,-1,-1,-1,-1,-1],"split_conditions":[-1.3139519E-1,1.3865614E-1,3.014542E-1,-9.534961E-2,7.2394907E-3,-6.99234E-3,7.594325E-2,5.412072E-3,-1.0342659E-1,5.8104217E-2,9.998414E-2,1.0608095E-1,2.7561545E-1,5.097556E-2,3.8862523E-1,-2.2220895E-1,-8.6153924E-2,-4.985571E-3,-9.149258E-2,1.3882363E0,4.610467E-1,-7.8997314E-2,3.7577495E-1,9.609616E-2,3.2049698E-1,5.003991E-1,3.898176E-1,1.1718285E0,4.0110776E-1,1.0106364E-1,-8.6823136E-2,1.1107725E0,5.7089552E-2,-9.4736844E-2,-1.5688911E-2,1.7121911E-2,-9.8774284E-2,1.070883E0,-4.7637123E-1,-2.6804549E-1,2.6418656E-2,8.396676E-2,-2.9531536E-1,-8.7594956E-2,-1.0302338E-1,-3.6523804E-1,-1.1919558E-2,-1.911024E-1,3.7577495E-1,-6.1111927E-2,6.6698265E-1,3.9452633E-1,4.2625287E-1,9.969882E-1,9.671447E-1,1.1205103E0,-9.998577E-2,7.250997E-2,2.5145793E-2,-6.570744E-2,9.361702E-2,7.363449E-2,9.977134E-2,4.6774194E-2,-7.591241E-2,9.6551724E-2,-5.1063832E-2,-9.824798E-2,-7.376238E-2,4.5238096E-2,-7.7192985E-2,6.983471E-2,-7.394068E-2,9.808917E-2,4.0909093E-2,8.702506E-2,-4.1121494E-2,-9.808917E-2,9.4736844E-2,1.6827935E-4,-6.1657306E-2,9.0368055E-2,-3.17757E-2,-4.597701E-3,-9.081028E-2,-2.8125001E-2,9.2857145E-2,3.8362067E-2,-6.887485E-2,4.551148E-2,-8.290398E-2,-6.635945E-2,-9.441646E-2,-3.960177E-2,-9.467593E-2,-9.3497425E-2,-8.7019645E-2,-9.669295E-2,8.6363636E-2,-7.9841115E-2,1.932246E-2,-2.1428572E-2,-9.648799E-2,-9.7113095E-2,-7.809918E-2,9.189189E-2,-9.590747E-2,-9.794417E-2,-9.9753E-2],"split_indices":[60,121,116,40,28,60,32,67,98,27,0,38,6,32,32,72,12,36,67,39,106,76,93,76,36,76,113,116,66,70,19,118,41,0,45,6,96,118,93,76,91,57,96,87,39,114,72,40,93,54,88,72,82,82,3,116,0,0,0,0,0,0,0,0,0,0,0,0,0,0,0,0,0,0,0,0,0,0,0,0,0,0,0,0,0,0,0,0,0,0,0,0,0,0,0,0,0,0,0,0,0,0,0,0,0,0,0,0,0],"split_type":[0,0,0,0,0,0,0,0,0,0,0,0,0,0,0,0,0,0,0,0,0,0,0,0,0,0,0,0,0,0,0,0,0,0,0,0,0,0,0,0,0,0,0,0,0,0,0,0,0,0,0,0,0,0,0,0,0,0,0,0,0,0,0,0,0,0,0,0,0,0,0,0,0,0,0,0,0,0,0,0,0,0,0,0,0,0,0,0,0,0,0,0,0,0,0,0,0,0,0,0,0,0,0,0,0,0,0,0,0],"sum_hessian":[1.4985675E5,7.480325E4,7.50535E4,9.22E2,7.388125E4,8.525E2,7.4201E4,8.61E2,6.1E1,4.31E2,7.345025E4,2.815E2,5.71E2,4.216E3,6.9985E4,6.165E2,2.445E2,9.25E0,5.175E1,4.425E1,3.8675E2,2.2325E2,5.825E1,3.9725E2,1.7375E2,3.93475E3,2.8125E2,1.952E3,6.8033E4,5.935E2,2.3E1,2.3475E2,9.75E0,2.75E0,6.5E0,4.7E1,4.75E0,3.55E1,8.75E0,3.7625E2,1.05E1,1.5425E2,6.9E1,5.475E1,3.5E0,3.0425E2,9.3E1,1.2975E2,4.4E1,2.46275E3,1.472E3,9E1,1.9125E2,1.92225E3,2.975E1,3.713E3,6.432E4,8.775E1,5.0575E2,2.075E1,2.25E0,1.6925E2,6.55E1,3E0,6.75E0,4.25E0,2.25E0,3.7E1,1E1,2E0,2.75E0,1.2E1,2.35E1,7.75E0,1E0,3.71E2,5.25E0,7.75E0,2.75E0,1.1875E2,3.55E1,6.375E1,5.25E0,4.25E0,5.05E1,1.5E0,2E0,1.15E1,2.9275E2,7.175E1,2.125E1,1.075E1,1.19E2,2.25E1,2.15E1,1.0095E3,1.45325E3,1.471E3,1E0,5.025E1,3.975E1,2E0,1.8925E2,1.91025E3,1.2E1,1.75E0,2.8E1,1.22325E3,2.48975E3],"tree_param":{"num_deleted":"0","num_feature":"128","num_nodes":"109","size_leaf_vector":"1"}},{"base_weights":[9.776357E-4,1.8865235E0,-1.8799304E0,8.551442E-1,1.9044727E0,-7.598875E-1,-1.8925066E0,1.2651675E0,3.630251E-1,1.3476477E0,9.522622E-2,-8.11281E-3,-1.132756E0,-1.7411047E0,-1.9022427E0,1.0383537E0,1.7089086E0,-1.193572E0,4.361949E-1,9.291447E-2,-4.9257223E-2,7.3392373E-1,-1.4266645E0,-9.780032E-1,-1.5966632E0,-1.66759E0,-1.8181281E0,-1.8456109E0,-1.9036359E0,1.080539E0,-6.388058E-1,1.4725354E0,1.8853133E0,6.793093E-2,-1.4153329E0,2.9970276E-1,1.2201804E0,1.3710642E0,-6.9094014E-1,-1.552041E0,2.6164252E-1,-1.3295629E0,-1.6230156E-1,-1.0337346E0,-1.7496837E0,-1.7098646E0,-6.723576E-1,-1.3742844E0,-1.8325056E0,-9.504762E-2,-1.8214269E0,-1.8878355E0,-9.522673E-2,7.909801E-2,4.6459213E-2,-9.443935E-2,1.793578E-2,9.071961E-2,4.706361E-2,9.499923E-2,2.4222765E-2,-7.953624E-2,1.16652E-2,5.433966E-3,3.2962445E-2,6.805444E-2,-6.5751426E-2,8.036721E-2,-5.6598276E-2,3.1259477E-2,-5.82406E-2,-1.976556E-2,-8.345698E-2,9.1085225E-2,-2.8193528E-2,-6.859825E-2,3.3183906E-2,3.0408377E-2,-3.0918902E-2,-7.502973E-3,-9.2392504E-2,-2.0027632E-2,-9.257609E-2,-8.875887E-2,-8.1855014E-2,-9.713052E-3,-8.801957E-2,-1.0070004E-2,-7.6535605E-2,-4.88611E-2,-9.177738E-2,-6.537207E-2,-9.13661E-2,-9.463089E-2,-8.978107E-2],"categories":[],"categories_nodes":[],"categories_segments":[],"categories_sizes":[],"default_left":[0,0,0,0,0,0,0,0,0,0,0,0,0,0,0,0,0,0,0,0,0,0,0,0,0,0,0,0,0,0,0,0,0,0,0,0,0,0,0,0,0,0,0,0,0,0,0,0,0,0,0,0,0,0,0,0,0,0,0,0,0,0,0,0,0,0,0,0,0,0,0,0,0,0,0,0,0,0,0,0,0,0,0,0,0,0,0,0,0,0,0,0,0,0,0],"id":1,"left_children":[1,3,5,7,9,11,13,15,17,19,-1,21,23,25,27,29,31,33,35,-1,-1,37,39,41,43,45,47,49,51,53,55,57,59,-1,61,63,65,67,69,71,73,75,77,79,81,83,85,87,89,-1,91,93,-1,-1,-1,-1,-1,-1,-1,-1,-1,-1,-1,-1,-1,-1,-1,-1,-1,-1,-1,-1,-1,-1,-1,-1,-1,-1,-1,-1,-1,-1,-1,-1,-1,-1,-1,-1,-1,-1,-1,-1,-1,-1,-1],"loss_changes":[5.309413E5,1.3835938E3,1.05525E3,2.5788904E2,1.53125E0,2.3322519E2,1.0853125E2,6.975879E1,6.6218506E1,9.004832E0,0E0,2.9088113E2,3.9527405E1,2.4713867E1,4.796875E0,3.2803345E1,9.212952E0,1.4956902E1,5.9267754E1,0E0,0E0,1.6479475E2,2.0263992E1,1.19584656E2,1.1500977E1,9.616113E1,1.337793E1,1.5258789E0,2.1875E-1,3.3814392E1,1.4361919E1,1.7971252E1,2.430725E0,0E0,7.134987E0,3.243523E1,2.9565636E1,7.438893E1,3.5085083E1,1.1706558E1,8.719063E0,2.4818054E1,4.4305336E1,2.139803E1,1.4660919E1,9.825195E0,4.852855E1,1.2493271E1,5.0463867E0,0E0,2.994873E0,9.1308594E-1,0E0,0E0,0E0,0E0,0E0,0E0,0E0,0E0,0E0,0E0,0E0,0E0,0E0,0E0,0E0,0E0,0E0,0E0,0E0,0E0,0E0,0E0,0E0,0E0,0E0,0E0,0E0,0E0,0E0,0E0,0E0,0E0,0E0,0E0,0E0,0E0,0E0,0E0,0E0,0E0,0E0,0E0,0E0],"parents":[2147483647,0,0,1,1,2,2,3,3,4,4,5,5,6,6,7,7,8,8,9,9,11,11,12,12,13,13,14,14,15,15,16,16,17,17,18,18,21,21,22,22,23,23,24,24,25,25,26,26,27,27,28,28,29,29,30,30,31,31,32,32,34,34,35,35,36,36,37,37,38,38,39,39,40,40,41,41,42,42,43,43,44,44,45,45,46,46,47,47,48,48,50,50,51,51],"right_children":[2,4,6,8,10,12,14,16,18,20,-1,22,24,26,28,30,32,34,36,-1,-1,38,40,42,44,46,48,50,52,54,56,58,60,-1,62,64,66,68,70,72,74,76,78,80,82,84,86,88,90,-1,92,94,-1,-1,-1,-1,-1,-1,-1,-1,-1,-1,-1,-1,-1,-1,-1,-1,-1,-1,-1,-1,-1,-1,-1,-1,-1,-1,-1,-1,-1,-1,-1,-1,-1,-1,-1,-1,-1,-1,-1,-1,-1,-1,-1],"split_conditions":[-2.1062398E-1,-3.294603E-2,3.014542E-1,-5.223443E-1,2.6418656E-2,-6.99234E-3,1.257616E-1,-2.771154E-2,2.9251963E-2,-9.269558E-3,9.522622E-2,-3.1456965E-1,1.6954988E-1,3.1434458E-1,3.8862523E-1,-9.85201E-2,5.326885E-1,-1.3122647E-1,-1.9719496E-2,9.291447E-2,-4.9257223E-2,1.6768783E-2,3.7577495E-1,6.05371E-2,-6.252962E-2,8.069581E-1,2.241295E-1,7.247585E-1,4.0110776E-1,-1.7195508E-1,1.1836839E-1,-4.1047484E-3,-1.2965727E-1,6.793093E-2,7.365191E-2,5.6705326E-1,9.1492593E-1,1.5854868E-1,-1.358999E-1,-1.1311141E-1,1.9034588E-1,1.8704277E-1,6.058219E-2,2.1978766E-2,2.5607717E-1,1.5683672E-1,3.898176E-1,2.4505392E-1,4.709375E-2,-9.504762E-2,4.9165985E-1,1.0488935E0,-9.522673E-2,7.909801E-2,4.6459213E-2,-9.443935E-2,1.793578E-2,9.071961E-2,4.706361E-2,9.499923E-2,2.4222765E-2,-7.953624E-2,1.16652E-2,5.433966E-3,3.2962445E-2,6.805444E-2,-6.5751426E-2,8.036721E-2,-5.6598276E-2,3.1259477E-2,-5.82406E-2,-1.976556E-2,-8.345698E-2,9.1085225E-2,-2.8193528E-2,-6.859825E-2,3.3183906E-2,3.0408377E-2,-3.0918902E-2,-7.502973E-3,-9.2392504E-2,-2.0027632E-2,-9.257609E-2,-8.875887E-2,-8.1855014E-2,-9.713052E-3,-8.801957E-2,-1.0070004E-2,-7.6535605E-2,-4.88611E-2,-9.177738E-2,-6.537207E-2,-9.13661E-2,-9.463089E-2,-8.978107E-2],"split_indices":[113,28,116,113,91,60,32,22,118,8,0,96,42,3,32,100,46,57,67,0,0,70,93,19,50,42,82,116,66,27,70,17,43,0,36,70,39,35,68,87,19,27,15,72,12,56,113,72,54,0,1,1,0,0,0,0,0,0,0,0,0,0,0,0,0,0,0,0,0,0,0,0,0,0,0,0,0,0,0,0,0,0,0,0,0,0,0,0,0,0,0,0,0,0,0],"split_type":[0,0,0,0,0,0,0,0,0,0,0,0,0,0,0,0,0,0,0,0,0,0,0,0,0,0,0,0,0,0,0,0,0,0,0,0,0,0,0,0,0,0,0,0,0,0,0,0,0,0,0,0,0,0,0,0,0,0,0,0,0,0,0,0,0,0,0,0,0,0,0,0,0,0,0,0,0,0,0,0,0,0,0,0,0,0,0,0,0,0,0,0,0,0,0],"sum_hessian":[1.4970672E5,7.476121E4,7.49455E4,1.2790027E3,7.348221E4,8.323267E2,7.411318E4,6.9750006E2,5.815027E2,7.2323503E0,7.347498E4,2.760756E2,5.5625116E2,4.4797017E3,6.963348E4,4.6194223E2,2.3555786E2,2.5976969E1,5.555257E2,5.985376E0,1.2469747E0,1.8124506E2,9.483052E1,4.1750412E2,1.3874702E2,2.2938765E3,2.1858254E3,1.6768063E3,6.795667E4,4.5070102E2,1.1241207E1,1.0130969E2,1.3424817E2,1.999671E0,2.3977297E1,4.7337646E2,8.214922E1,1.25293106E2,5.595196E1,8.8337715E1,6.492809E0,2.9162915E2,1.2587498E2,2.9959967E1,1.0878705E2,2.2002441E3,9.3632385E1,6.9105774E1,2.1167197E3,5.0630518E2,1.1705011E3,3.6744607E3,6.4282207E4,1.04128586E2,3.4657245E2,4.9940844E0,6.247123E0,6.1381935E1,3.9927757E1,1.3275084E2,1.4973317E0,2.1729729E1,2.2475688E0,3.094023E2,1.6397415E2,7.790498E1,4.244244E0,1.14555115E2,1.0737989E1,1.4747991E1,4.1203968E1,8.239295E0,8.009842E1,2.246955E0,4.245854E0,2.8563422E2,5.994933E0,4.6711193E1,7.916378E1,1.4481935E1,1.5478032E1,7.738889E0,1.01048164E2,1.1575355E3,1.0427085E3,6.519472E1,2.8437664E1,8.234218E0,6.087156E1,7.7320247E0,2.1089875E3,1.3717632E1,1.1567834E3,3.4904114E3,1.8404927E2],"tree_param":{"num_deleted":"0","num_feature":"128","num_nodes":"95","size_leaf_vector":"1"}},{"base_weights":[-5.931267E-4,1.8046931E0,-1.7980701E0,6.072239E-1,1.8195336E0,-6.97774E-1,-1.8106172E0,3.8769248E-1,1.3185035E0,1.340534E0,9.1115825E-2,-2.2169551E-1,-1.0872697E0,-1.6625401E0,-1.8201332E0,4.7139803E-1,-8.556638E-1,1.4002466E0,-8.4385806E-1,-3.690114E-2,1.511234E0,-9.965795E-1,6.977971E-1,-9.0233976E-1,-1.4845201E0,-1.5918114E0,-1.7360972E0,-1.7775521E0,-9.1092944E-2,1.0754186E0,2.7477106E-1,-1.2612516E0,4.1902757E-1,1.1375903E0,1.8161924E0,-1.6471575E0,6.866187E-2,1.6697196E0,-5.507924E-1,1.5764542E0,-7.5664634E-1,-5.693292E-1,-1.4390625E0,1.4581628E0,-5.101403E-1,-1.0583854E0,4.320408E-1,-2.122422E-1,-1.5617406E0,-1.6216882E0,-7.328156E-1,-5.3823674E-1,-1.7402763E0,-1.6422548E0,-1.7851639E0,-1.5001433E-2,6.081141E-2,-2.9074333E-3,2.568234E-2,-3.525918E-2,-8.1005365E-2,5.5824734E-2,-4.0377013E-2,6.4558946E-2,-1.4547845E-3,9.205028E-2,8.00698E-3,-4.8344072E-2,-8.9464106E-2,1.2165364E-2,9.215005E-2,7.93164E-2,-5.5942293E-2,8.0155544E-2,-7.8409605E-2,-9.474028E-2,8.747529E-2,-5.770381E-2,3.8773738E-2,-7.364041E-2,3.4458335E-2,7.817726E-2,-6.8049334E-2,-7.526184E-2,3.9356746E-2,-3.9641436E-2,-8.545404E-2,-8.847559E-2,8.259498E-2,5.6890793E-2,-7.90445E-2,-3.1579282E-2,-8.282741E-2,-8.372004E-2,-7.608169E-2,3.872317E-3,-9.146749E-2,-8.9721605E-2,7.053793E-2,-6.165877E-2,-8.731695E-2,-8.33424E-2,3.111094E-2,-8.862408E-2,-9.047003E-2],"categories":[],"categories_nodes":[],"categories_segments":[],"categories_sizes":[],"default_left":[0,0,0,0,0,0,0,0,0,0,0,0,0,0,0,0,0,0,0,0,0,0,0,0,0,0,0,0,0,0,0,0,0,0,0,0,0,0,0,0,0,0,0,0,0,0,0,0,0,0,0,0,0,0,0,0,0,0,0,0,0,0,0,0,0,0,0,0,0,0,0,0,0,0,0,0,0,0,0,0,0,0,0,0,0,0,0,0,0,0,0,0,0,0,0,0,0,0,0,0,0,0,0,0,0],"id":2,"left_children":[1,3,5,7,9,11,13,15,17,19,-1,21,23,25,27,29,31,33,35,37,39,41,43,45,47,49,51,53,-1,55,57,59,61,63,65,67,-1,69,71,73,75,77,79,81,83,85,87,89,91,93,95,97,99,101,103,-1,-1,-1,-1,-1,-1,-1,-1,-1,-1,-1,-1,-1,-1,-1,-1,-1,-1,-1,-1,-1,-1,-1,-1,-1,-1,-1,-1,-1,-1,-1,-1,-1,-1,-1,-1,-1,-1,-1,-1,-1,-1,-1,-1,-1,-1,-1,-1,-1,-1],"loss_changes":[4.8225544E5,1.3173125E3,1.0277188E3,1.4154626E2,9.7078125E1,1.555853E2,1.03140625E2,7.223325E1,3.7996582E1,9.975598E1,0E0,2.6955057E2,3.3553345E1,2.2529297E1,4.390625E0,7.708011E1,2.274879E1,2.2032959E1,1.41670885E1,4.097286E1,5.595935E1,3.853444E1,1.5901956E2,6.5811584E1,1.4169434E1,5.7887695E1,1.0583984E1,2.1455078E0,0E0,3.1032394E1,3.90899E1,6.290951E0,9.165909E0,2.2859482E1,3.038147E0,1.134119E-1,0E0,2.4152355E0,4.3888214E1,3.0977905E1,3.047485E1,8.2493195E1,7.410919E0,3.1788467E1,8.646835E1,4.8446655E1,8.901389E1,1.6050535E1,1.1827484E1,1.09921875E1,6.822368E1,1.9393192E1,6.1606445E0,8.328217E0,1.06933594E-1,0E0,0E0,0E0,0E0,0E0,0E0,0E0,0E0,0E0,0E0,0E0,0E0,0E0,0E0,0E0,0E0,0E0,0E0,0E0,0E0,0E0,0E0,0E0,0E0,0E0,0E0,0E0,0E0,0E0,0E0,0E0,0E0,0E0,0E0,0E0,0E0,0E0,0E0,0E0,0E0,0E0,0E0,0E0,0E0,0E0,0E0,0E0,0E0,0E0,0E0],"parents":[2147483647,0,0,1,1,2,2,3,3,4,4,5,5,6,6,7,7,8,8,9,9,11,11,12,12,13,13,14,14,15,15,16,16,17,17,18,18,19,19,20,20,21,21,22,22,23,23,24,24,25,25,26,26,27,27,29,29,30,30,31,31,32,32,33,33,34,34,35,35,37,37,38,38,39,39,40,40,41,41,42,42,43,43,44,44,45,45,46,46,47,47,48,48,49,49,50,50,51,51,52,52,53,53,54,54],"right_children":[2,4,6,8,10,12,14,16,18,20,-1,22,24,26,28,30,32,34,36,38,40,42,44,46,48,50,52,54,-1,56,58,60,62,64,66,68,-1,70,72,74,76,78,80,82,84,86,88,90,92,94,96,98,100,102,104,-1,-1,-1,-1,-1,-1,-1,-1,-1,-1,-1,-1,-1,-1,-1,-1,-1,-1,-1,-1,-1,-1,-1,-1,-1,-1,-1,-1,-1,-1,-1,-1,-1,-1,-1,-1,-1,-1,-1,-1,-1,-1,-1,-1,-1,-1,-1,-1,-1,-1],"split_conditions":[-2.1062398E-1,1.3865614E-1,3.014542E-1,3.327157E-2,-1.0770112E-3,8.114126E-2,1.257616E-1,-2.679903E-1,-1.0148004E-1,5.8104217E-2,9.1115825E-2,4.2679697E-2,-3.5204113E-2,3.1434458E-1,-3.3489645E-2,-1.9046889E-1,9.7093076E-2,7.353748E-1,2.5682396E-1,-7.6550096E-3,4.6547908E-1,6.967594E-2,-3.1456965E-1,2.319771E-1,-2.0977883E-1,6.2803626E-1,3.287779E-1,6.245122E-1,-9.1092944E-2,2.9251963E-2,5.201539E-1,1.0469313E-1,-6.977773E-2,5.663521E-1,1.6268373E-1,3.0739695E-1,6.866187E-2,-1.6033408E-1,9.7152984E-1,-1.5096988E-1,2.6418656E-2,-2.1062063E-1,2.3292223E-1,6.922379E-2,-2.679903E-1,2.4300694E-1,2.273728E-1,-8.8815734E-2,-1.6422458E-1,1.7583323E-1,3.898176E-1,5.275843E-1,2.3480895E-1,1.1236587E0,1.2330765E0,-1.5001433E-2,6.081141E-2,-2.9074333E-3,2.568234E-2,-3.525918E-2,-8.1005365E-2,5.5824734E-2,-4.0377013E-2,6.4558946E-2,-1.4547845E-3,9.205028E-2,8.00698E-3,-4.8344072E-2,-8.9464106E-2,1.2165364E-2,9.215005E-2,7.93164E-2,-5.5942293E-2,8.0155544E-2,-7.8409605E-2,-9.474028E-2,8.747529E-2,-5.770381E-2,3.8773738E-2,-7.364041E-2,3.4458335E-2,7.817726E-2,-6.8049334E-2,-7.526184E-2,3.9356746E-2,-3.9641436E-2,-8.545404E-2,-8.847559E-2,8.259498E-2,5.6890793E-2,-7.90445E-2,-3.1579282E-2,-8.282741E-2,-8.372004E-2,-7.608169E-2,3.872317E-3,-9.146749E-2,-8.9721605E-2,7.053793E-2,-6.165877E-2,-8.731695E-2,-8.33424E-2,3.111094E-2,-8.862408E-2,-9.047003E-2],"split_indices":[113,121,116,75,28,68,32,72,12,27,0,100,50,3,66,18,35,18,57,58,106,57,96,82,40,9,87,1,0,118,39,57,72,53,27,41,0,27,118,48,91,48,70,70,72,38,9,54,72,3,113,93,90,36,93,0,0,0,0,0,0,0,0,0,0,0,0,0,0,0,0,0,0,0,0,0,0,0,0,0,0,0,0,0,0,0,0,0,0,0,0,0,0,0,0,0,0,0,0,0,0,0,0,0,0],"split_type":[0,0,0,0,0,0,0,0,0,0,0,0,0,0,0,0,0,0,0,0,0,0,0,0,0,0,0,0,0,0,0,0,0,0,0,0,0,0,0,0,0,0,0,0,0,0,0,0,0,0,0,0,0,0,0,0,0,0,0,0,0,0,0,0,0,0,0,0,0,0,0,0,0,0,0,0,0,0,0,0,0,0,0,0,0,0,0,0,0,0,0,0,0,0,0,0,0,0,0,0,0,0,0,0,0],"sum_hessian":[1.4861655E5,7.414717E4,7.446937E4,9.0780664E2,7.323937E4,8.397847E2,7.3629586E4,6.939262E2,2.1388039E2,4.2351105E2,7.281586E4,3.7807697E2,4.617078E2,4.447707E3,6.9181875E4,6.502898E2,4.363646E1,2.0616817E2,7.7122226E0,4.6641125E1,3.7686993E2,2.0522665E2,1.728503E2,3.15441E2,1.4626678E2,2.2692961E3,2.1784106E3,2.700779E3,6.64811E4,1.5946672E2,4.9082306E2,3.3163754E1,1.0472707E1,1.2674605E2,7.942211E1,5.71307E0,1.9991525E0,1.069703E1,3.5944096E1,3.6640732E2,1.0462621E1,1.0464182E2,1.0058484E2,1.06115425E2,6.673487E1,2.825004E2,3.2940624E1,8.465183E0,1.378016E2,2.1928223E3,7.647385E1,7.7019544E0,2.1707087E3,1.4570587E2,2.5550732E3,1.4732683E1,1.4473402E2,2.0490506E2,2.85918E2,1.3233241E1,1.9930511E1,6.7340217E0,3.7386856E0,1.12067894E2,1.467816E1,7.8179184E1,1.2429348E0,1.2437589E0,4.469311E0,1.2472727E0,9.449758E0,7.4732127E0,2.8470882E1,3.6340756E2,2.9997451E0,7.239243E0,3.2233782E0,7.299201E1,3.1649807E1,9.909141E1,1.4934361E0,1.023688E2,3.7466295E0,3.7800457E1,2.8934414E1,2.008902E2,8.161019E1,1.1699249E1,2.1241375E1,4.233241E0,4.231942E0,1.2914876E1,1.2488673E2,1.4344987E3,7.583236E2,4.397853E1,3.249531E1,4.719385E0,2.982569E0,2.6081717E1,2.144627E3,1.4421024E2,1.4956415E0,1.6849353E3,8.701379E2],"tree_param":{"num_deleted":"0","num_feature":"128","num_nodes":"105","size_leaf_vector":"1"}},{"base_weights":[8.700557E-4,1.733743E0,-1.727124E0,5.947023E-1,1.7479225E0,-6.9557875E-1,-1.7390187E0,7.164719E-1,-1.5298375E0,2.4587205E-1,1.7486093E0,-6.766821E-2,-1.000145E0,-1.5932783E0,-1.7484225E0,4.781701E-1,1.3392856E0,4.421751E-2,-1.6367084E0,1.4499555E0,-1.4636942E0,1.749182E0,1.9811785E-1,2.878569E-1,-1.357628E0,-7.818382E-1,-1.5030011E0,-1.5271866E0,-1.6608641E0,-1.7003589E0,-1.7500046E0,9.1889995E-1,2.9765922E-1,1.4270753E0,-4.5924065E-1,-1.7094352E0,-4.1247123E-1,-6.282766E-2,1.6439115E0,8.40799E-2,-1.7969289E0,1.5155244E0,8.752977E-2,-1.3240323E0,8.516717E-1,-2.3922674E-1,1.4661338E0,-1.4784455E0,5.3379506E-1,-1.1392096E0,3.8026637E-1,-1.6312363E0,-1.0613819E0,-1.5474559E0,1.2332928E0,-6.715214E-1,-1.6666285E0,-1.6072377E0,-1.7103817E0,-1.4444318E0,-8.750248E-2,5.4666836E-2,-2.7802551E-2,2.0799283E-2,-3.0274693E-2,-9.125114E-2,7.249967E-2,-6.819695E-2,4.706941E-2,-8.856055E-2,-7.348853E-2,5.3371605E-2,-8.511575E-2,1.9816477E-2,8.935809E-2,-9.394195E-2,-5.231271E-2,7.780322E-2,-4.4063754E-2,4.5359258E-2,-8.785143E-2,7.438766E-2,-2.4994388E-2,1.3373153E-3,-5.844886E-2,-2.0348784E-2,8.140888E-2,-5.6374236E-3,-8.05014E-2,9.016312E-2,-5.5308234E-2,-6.0843136E-2,3.4280237E-2,4.4432126E-2,-6.305675E-2,-6.449858E-2,-8.583353E-2,-2.0464232E-2,-8.339124E-2,-7.843014E-2,-4.4461124E-2,-8.330958E-2,9.145998E-2,3.9772477E-2,-8.018847E-2,-6.806444E-2,-8.377429E-2,-8.221396E-2,1.639907E-2,-8.725885E-2,-8.452905E-2,-1.8373795E-3,-8.083571E-2],"categories":[],"categories_nodes":[],"categories_segments":[],"categories_sizes":[],"default_left":[0,0,0,0,0,0,0,0,0,0,0,0,0,0,0,0,0,0,0,0,0,0,0,0,0,0,0,0,0,0,0,0,0,0,0,0,0,0,0,0,0,0,0,0,0,0,0,0,0,0,0,0,0,0,0,0,0,0,0,0,0,0,0,0,0,0,0,0,0,0,0,0,0,0,0,0,0,0,0,0,0,0,0,0,0,0,0,0,0,0,0,0,0,0,0,0,0,0,0,0,0,0,0,0,0,0,0,0,0,0,0,0,0],"id":3,"left_children":[1,3,5,7,9,11,13,15,17,19,21,23,25,27,29,31,33,-1,35,37,39,41,43,45,47,49,51,53,55,57,59,61,63,65,67,69,71,-1,73,-1,75,77,-1,79,81,83,85,87,89,91,93,95,97,99,101,103,105,107,109,111,-1,-1,-1,-1,-1,-1,-1,-1,-1,-1,-1,-1,-1,-1,-1,-1,-1,-1,-1,-1,-1,-1,-1,-1,-1,-1,-1,-1,-1,-1,-1,-1,-1,-1,-1,-1,-1,-1,-1,-1,-1,-1,-1,-1,-1,-1,-1,-1,-1,-1,-1,-1,-1],"loss_changes":[4.4008888E5,1.1848594E3,9.0253125E2,2.3351376E2,7.453125E1,1.6036346E2,9.9109375E1,1.2645932E2,1.2839531E1,6.8765564E1,6.409375E1,1.25940994E2,6.1671753E1,1.9132812E1,4.53125E0,4.8995193E1,3.7437378E1,0E0,3.894188E0,1.0547531E1,1.4755199E1,2.334375E1,2.6850613E1,1.3371573E2,1.3734192E1,1.6386232E2,9.228455E0,1.2512744E2,1.2082031E1,1.4311523E0,3.4375E-1,4.624092E1,4.6872253E1,1.7009552E1,1.412175E1,6.959534E-2,5.6654415E0,0E0,2.9975662E0,0E0,2.8171158E-1,4.262964E1,0E0,8.05158E0,1.6459194E1,3.68674E1,2.0384888E1,9.846962E0,7.736414E0,4.2878784E1,7.74616E1,3.3258667E0,1.5103588E1,3.0463379E1,2.8469881E1,1.783807E1,5.32666E0,1.5582642E1,7.182617E-1,2.4079914E0,0E0,0E0,0E0,0E0,0E0,0E0,0E0,0E0,0E0,0E0,0E0,0E0,0E0,0E0,0E0,0E0,0E0,0E0,0E0,0E0,0E0,0E0,0E0,0E0,0E0,0E0,0E0,0E0,0E0,0E0,0E0,0E0,0E0,0E0,0E0,0E0,0E0,0E0,0E0,0E0,0E0,0E0,0E0,0E0,0E0,0E0,0E0,0E0,0E0,0E0,0E0,0E0,0E0],"parents":[2147483647,0,0,1,1,2,2,3,3,4,4,5,5,6,6,7,7,8,8,9,9,10,10,11,11,12,12,13,13,14,14,15,15,16,16,18,18,19,19,20,20,21,21,22,22,23,23,24,24,25,25,26,26,27,27,28,28,29,29,30,30,31,31,32,32,33,33,34,34,35,35,36,36,38,38,40,40,41,41,43,43,44,44,45,45,46,46,47,47,48,48,49,49,50,50,51,51,52,52,53,53,54,54,55,55,56,56,57,57,58,58,59,59],"right_children":[2,4,6,8,10,12,14,16,18,20,22,24,26,28,30,32,34,-1,36,38,40,42,44,46,48,50,52,54,56,58,60,62,64,66,68,70,72,-1,74,-1,76,78,-1,80,82,84,86,88,90,92,94,96,98,100,102,104,106,108,110,112,-1,-1,-1,-1,-1,-1,-1,-1,-1,-1,-1,-1,-1,-1,-1,-1,-1,-1,-1,-1,-1,-1,-1,-1,-1,-1,-1,-1,-1,-1,-1,-1,-1,-1,-1,-1,-1,-1,-1,-1,-1,-1,-1,-1,-1,-1,-1,-1,-1,-1,-1,-1,-1],"split_conditions":[-1.3139519E-1,1.3865614E-1,3.014542E-1,1.2433562E-1,2.6418656E-2,-6.99234E-3,1.257616E-1,5.412072E-3,9.022176E-3,-7.8347504E-2,-4.114277E-1,1.0608095E-1,2.7561545E-1,4.7618884E-1,4.6950606E-1,-2.7983928E-1,-1.0148004E-1,4.421751E-2,-1.21759355E-1,3.6330417E-1,2.093421E-2,-1.5386787E-1,3.4341502E-1,-7.8997314E-2,3.7577495E-1,9.609616E-2,3.2049698E-1,6.357584E-1,-1.251708E-2,6.245122E-1,-9.949301E-2,1.0469313E-1,-1.8142655E-1,2.9251963E-2,-2.8603077E-2,1.7121911E-2,1.5436286E-1,-6.282766E-2,-7.680865E-2,8.40799E-2,-3.9019667E-2,-4.5842403E-1,8.752977E-2,6.5471256E-1,-2.6804549E-1,8.396676E-2,9.44784E-2,-8.7594956E-2,2.23418E-1,2.3000148E-1,2.7008548E-1,-6.0422778E-2,2.4368832E-1,8.069581E-1,8.2790244E-1,2.7530664E-1,3.4237778E-1,1.1236587E0,8.526537E-1,8.240963E-1,-8.750248E-2,5.4666836E-2,-2.7802551E-2,2.0799283E-2,-3.0274693E-2,-9.125114E-2,7.249967E-2,-6.819695E-2,4.706941E-2,-8.856055E-2,-7.348853E-2,5.3371605E-2,-8.511575E-2,1.9816477E-2,8.935809E-2,-9.394195E-2,-5.231271E-2,7.780322E-2,-4.4063754E-2,4.5359258E-2,-8.785143E-2,7.438766E-2,-2.4994388E-2,1.3373153E-3,-5.844886E-2,-2.0348784E-2,8.140888E-2,-5.6374236E-3,-8.05014E-2,9.016312E-2,-5.5308234E-2,-6.0843136E-2,3.4280237E-2,4.4432126E-2,-6.305675E-2,-6.449858E-2,-8.583353E-2,-2.0464232E-2,-8.339124E-2,-7.843014E-2,-4.4461124E-2,-8.330958E-2,9.145998E-2,3.9772477E-2,-8.018847E-2,-6.806444E-2,-8.377429E-2,-8.221396E-2,1.639907E-2,-8.725885E-2,-8.452905E-2,-1.8373795E-3,-8.083571E-2],"split_indices":[60,121,116,68,91,60,32,67,38,83,38,38,6,19,32,18,12,0,67,18,58,16,78,76,93,76,36,9,88,1,0,57,48,118,12,6,6,0,27,0,22,93,0,18,76,57,93,87,42,18,48,119,9,42,42,54,60,36,6,30,0,0,0,0,0,0,0,0,0,0,0,0,0,0,0,0,0,0,0,0,0,0,0,0,0,0,0,0,0,0,0,0,0,0,0,0,0,0,0,0,0,0,0,0,0,0,0,0,0,0,0,0,0],"split_type":[0,0,0,0,0,0,0,0,0,0,0,0,0,0,0,0,0,0,0,0,0,0,0,0,0,0,0,0,0,0,0,0,0,0,0,0,0,0,0,0,0,0,0,0,0,0,0,0,0,0,0,0,0,0,0,0,0,0,0,0,0,0,0,0,0,0,0,0,0,0,0,0,0,0,0,0,0,0,0,0,0,0,0,0,0,0,0,0,0,0,0,0,0,0,0,0,0,0,0,0,0,0,0,0,0,0,0,0,0,0,0,0,0],"sum_hessian":[1.4697072E5,7.33818E4,7.358893E4,9.024183E2,7.247938E4,8.390379E2,7.274989E4,8.536065E2,4.8811764E1,3.3203876E1,7.244617E4,2.7419427E2,5.648436E2,4.4112944E3,6.833859E4,6.176267E2,2.3597983E2,1.998687E0,4.681308E1,1.9525404E1,1.3678472E1,7.241935E4,2.6824902E1,2.1495172E2,5.924256E1,3.9417386E2,1.7066978E2,2.232242E3,2.1790525E3,2.1832686E3,6.615533E4,1.7918092E2,4.3844574E2,2.2506998E2,1.090985E1,4.4073536E1,2.7395418E0,1.2345643E0,1.829084E1,1.2428551E0,1.24356165E1,4.3652533E2,7.198283E4,7.981081E0,1.884382E1,1.4851202E2,6.643969E1,5.575578E1,3.486783E0,3.015339E2,9.263995E1,1.3187944E2,3.879034E1,2.2160503E3,1.6191488E1,1.2791135E1,2.1662615E3,2.1469398E2,1.9685745E3,1.0535369E1,6.614479E4,1.6031479E2,1.8866135E1,3.8780255E2,5.064321E1,1.489455E0,2.2358052E2,6.673378E0,4.236472E0,3.4201485E1,9.87205E0,1.2477031E0,1.4918387E0,1.9945807E0,1.6296259E1,1.0956585E1,1.479032E0,4.293402E2,7.18513E0,1.2417767E0,6.7393045E0,1.2856913E1,5.986908E0,1.1546935E2,3.3042667E1,5.2289147E0,6.1210777E1,4.9829793E0,5.07728E1,1.9941567E0,1.4926262E0,2.893107E2,1.22232E1,7.0814125E1,2.1825825E1,2.696174E1,1.049177E2,1.8851759E1,1.9938581E1,2.1467908E3,6.925965E1,2.7011542E0,1.34903345E1,4.934184E0,7.8569503E0,6.182248E1,2.104439E3,2.1072723E2,3.9667552E0,7.0896594E2,1.2596085E3,1.2253177E0,9.310051E0],"tree_param":{"num_deleted":"0","num_feature":"128","num_nodes":"113","size_leaf_vector":"1"}},{"base_weights":[-3.429182E-4,1.6711947E0,-1.664781E0,7.414148E-1,1.6876725E0,-6.5924054E-1,-1.6764636E0,8.617027E-1,-8.932172E-1,1.4185592E0,8.438759E-2,-5.5095352E-2,-9.6336895E-1,-1.5344484E0,-1.6856412E0,6.4805293E-1,1.4332112E0,-2.2427326E-2,-1.3544381E0,7.624473E-1,8.4367424E-2,2.9594076E-1,-1.3768765E0,-7.297376E-1,-1.3761907E0,-1.4658545E0,-1.6061116E0,-1.6440507E0,-8.436575E-2,5.026881E-1,1.0066993E0,1.4729056E0,-6.44222E-1,-3.7144527E-1,1.4331799E0,-1.1021593E-1,-1.5063872E0,8.30247E-2,-8.419263E-2,-1.9172266E-1,1.3102944E0,-1.6098652E0,-2.4022116E-1,-1.0812259E0,5.201974E-1,-1.5062424E0,-1.0918369E0,-1.500372E0,-6.605922E-1,-1.6078755E0,6.329799E-2,-1.631921E0,-8.394995E-2,4.7906946E-2,1.5980752E-2,6.2194496E-2,-3.4983829E-3,7.473365E-2,-7.161942E-2,-8.8603966E-2,6.0347375E-2,-3.648343E-2,8.618819E-2,8.821879E-2,6.187187E-3,-8.980872E-2,2.7657801E-2,-8.1081145E-2,-1.4785265E-2,-7.633473E-4,-5.888125E-2,7.621471E-2,-7.574436E-2,-2.3668882E-2,-8.2137026E-2,1.327561E-2,-8.167866E-2,3.2816492E-2,-5.7001866E-2,5.5433758E-2,-8.0451645E-2,-6.832206E-2,-8.431999E-2,9.678406E-2,-5.8476567E-2,-7.8203395E-2,-7.142361E-2,-7.622849E-3,-7.8708455E-2,-4.8241723E-2,-8.070907E-2,-8.401074E-2,-8.0825545E-2],"categories":[],"categories_nodes":[],"categories_segments":[],"categories_sizes":[],"default_left":[0,0,0,0,0,0,0,0,0,0,0,0,0,0,0,0,0,0,0,0,0,0,0,0,0,0,0,0,0,0,0,0,0,0,0,0,0,0,0,0,0,0,0,0,0,0,0,0,0,0,0,0,0,0,0,0,0,0,0,0,0,0,0,0,0,0,0,0,0,0,0,0,0,0,0,0,0,0,0,0,0,0,0,0,0,0,0,0,0,0,0,0,0],"id":4,"left_children":[1,3,5,7,9,11,13,15,17,19,-1,21,23,25,27,29,31,33,35,37,-1,39,41,43,45,47,49,51,-1,53,55,57,59,61,63,65,67,-1,-1,69,71,73,75,77,79,81,83,85,87,89,-1,91,-1,-1,-1,-1,-1,-1,-1,-1,-1,-1,-1,-1,-1,-1,-1,-1,-1,-1,-1,-1,-1,-1,-1,-1,-1,-1,-1,-1,-1,-1,-1,-1,-1,-1,-1,-1,-1,-1,-1,-1,-1],"loss_changes":[4.0324303E5,1.1075469E3,8.527969E2,2.4773566E2,9.6875E-1,1.5319095E2,9.296875E1,1.4296552E2,3.4530113E1,3.496727E0,0E0,1.2987453E2,5.320276E1,2.0885742E1,4.09375E0,4.4340363E1,2.6488708E1,1.5222576E1,1.047673E1,1.49271555E1,0E0,1.0942675E2,1.5334343E1,1.559406E2,6.9813843E0,6.1649414E1,1.1029297E1,5.029297E-1,0E0,5.0566284E1,6.2977493E1,2.002478E1,1.2807019E1,1.8330538E1,2.2961855E0,7.2843757E0,6.7562256E0,0E0,0E0,2.5839485E1,4.364839E1,1.5288162E0,7.3565283E0,2.8422668E1,9.7679794E1,2.9124146E0,1.5074722E1,9.266602E0,4.2478367E1,8.219727E0,0E0,8.4765625E-1,0E0,0E0,0E0,0E0,0E0,0E0,0E0,0E0,0E0,0E0,0E0,0E0,0E0,0E0,0E0,0E0,0E0,0E0,0E0,0E0,0E0,0E0,0E0,0E0,0E0,0E0,0E0,0E0,0E0,0E0,0E0,0E0,0E0,0E0,0E0,0E0,0E0,0E0,0E0,0E0,0E0],"parents":[2147483647,0,0,1,1,2,2,3,3,4,4,5,5,6,6,7,7,8,8,9,9,11,11,12,12,13,13,14,14,15,15,16,16,17,17,18,18,19,19,21,21,22,22,23,23,24,24,25,25,26,26,27,27,29,29,30,30,31,31,32,32,33,33,34,34,35,35,36,36,39,39,40,40,41,41,42,42,43,43,44,44,45,45,46,46,47,47,48,48,49,49,51,51],"right_children":[2,4,6,8,10,12,14,16,18,20,-1,22,24,26,28,30,32,34,36,38,-1,40,42,44,46,48,50,52,-1,54,56,58,60,62,64,66,68,-1,-1,70,72,74,76,78,80,82,84,86,88,90,-1,92,-1,-1,-1,-1,-1,-1,-1,-1,-1,-1,-1,-1,-1,-1,-1,-1,-1,-1,-1,-1,-1,-1,-1,-1,-1,-1,-1,-1,-1,-1,-1,-1,-1,-1,-1,-1,-1,-1,-1,-1,-1],"split_conditions":[-1.3139519E-1,-3.294603E-2,3.014542E-1,-2.3565188E-1,7.2394907E-3,-6.99234E-3,1.257616E-1,2.5683573E-1,-9.534961E-2,7.5766355E-2,8.438759E-2,-2.9531536E-1,2.5837523E-1,3.1434458E-1,-3.3489645E-2,5.412072E-3,4.42299E-1,-1.02454096E-1,-1.0342659E-1,7.1015164E-2,8.4367424E-2,-1.1861506E-1,-1.0302338E-1,9.609616E-2,3.2500538E-1,8.069581E-1,-5.3030647E-2,1.8963866E-1,-8.436575E-2,-2.7983928E-1,1.4984941E-1,-2.6804549E-1,1.2374291E0,-2.0105712E-2,-1.1758244E-1,2.6485771E-2,5.412072E-3,8.30247E-2,-8.419263E-2,-1.0941386E-2,-2.1945417E-2,-1.2129557E-1,-1.9046889E-1,-3.6523804E-1,-7.844621E-2,2.1180436E-1,-1.7457063E-1,3.1749213E-1,7.723113E-1,-1.251708E-2,6.329799E-2,7.8019494E-1,-8.394995E-2,4.7906946E-2,1.5980752E-2,6.2194496E-2,-3.4983829E-3,7.473365E-2,-7.161942E-2,-8.8603966E-2,6.0347375E-2,-3.648343E-2,8.618819E-2,8.821879E-2,6.187187E-3,-8.980872E-2,2.7657801E-2,-8.1081145E-2,-1.4785265E-2,-7.633473E-4,-5.888125E-2,7.621471E-2,-7.574436E-2,-2.3668882E-2,-8.2137026E-2,1.327561E-2,-8.167866E-2,3.2816492E-2,-5.7001866E-2,5.5433758E-2,-8.0451645E-2,-6.832206E-2,-8.431999E-2,9.678406E-2,-5.8476567E-2,-7.8203395E-2,-7.142361E-2,-7.622849E-3,-7.8708455E-2,-4.8241723E-2,-8.070907E-2,-8.401074E-2,-8.0825545E-2],"split_indices":[60,28,116,98,28,60,32,121,40,22,0,96,6,3,66,67,106,42,98,8,0,76,39,76,57,42,67,4,0,18,121,76,39,5,40,9,67,0,0,35,15,87,18,114,90,9,119,87,114,88,0,6,0,0,0,0,0,0,0,0,0,0,0,0,0,0,0,0,0,0,0,0,0,0,0,0,0,0,0,0,0,0,0,0,0,0,0,0,0,0,0,0,0],"split_type":[0,0,0,0,0,0,0,0,0,0,0,0,0,0,0,0,0,0,0,0,0,0,0,0,0,0,0,0,0,0,0,0,0,0,0,0,0,0,0,0,0,0,0,0,0,0,0,0,0,0,0,0,0,0,0,0,0,0,0,0,0,0,0,0,0,0,0,0,0,0,0,0,0,0,0,0,0,0,0,0,0,0,0,0,0,0,0,0,0,0,0,0,0],"sum_hessian":[1.4493808E5,7.231478E4,7.26233E4,1.2594551E3,7.105533E4,8.34231E2,7.178906E4,1.173229E3,8.62261E1,2.1846304E1,7.1033484E4,2.794855E2,5.5474554E2,4.359355E3,6.742971E4,8.542639E2,3.1896512E2,2.9967958E1,5.625814E1,6.568462E0,1.52778425E1,2.2083777E2,5.864772E1,3.5458917E2,2.0015637E2,2.2291882E3,2.1301667E3,2.6146006E3,6.481511E4,6.0824994E2,2.4601393E2,3.1306058E2,5.9045477E0,2.4287588E1,5.68037E0,6.2131324E0,5.004501E1,4.858052E0,1.7104104E0,1.4912604E2,7.171173E1,4.8563656E1,1.0084064E1,2.7683514E2,7.7754005E1,1.368057E2,6.3350685E1,2.1373599E3,9.1828354E1,2.1289382E3,1.2285864E0,1.9466113E3,6.679892E2,1.7411519E2,4.3413477E2,2.0166443E2,4.434949E1,3.1081485E2,2.2457495E0,3.7053134E0,2.1992345E0,2.08378E1,3.4497895E0,4.444987E0,1.2353833E0,1.7487271E0,4.4644055E0,4.5589184E1,4.4558244E0,1.2665962E2,2.2466423E1,6.673795E1,4.973776E0,1.4941217E0,4.7069534E1,7.4053726E0,2.6786914E0,8.974402E0,2.6786075E2,6.099192E1,1.6762083E1,7.7826355E1,5.8979332E1,1.4930372E0,6.1857647E1,1.1315017E3,1.0058582E3,5.915323E1,3.2675125E1,2.097819E1,2.10796E3,4.667093E2,1.4799021E3],"tree_param":{"num_deleted":"0","num_feature":"128","num_nodes":"93","size_leaf_vector":"1"}},{"base_weights":[-7.000506E-4,1.6155682E0,-1.6088837E0,7.0531905E-1,1.6320364E0,-6.763201E-1,-1.6208118E0,8.006301E-1,-1.3280325E0,1.2191545E0,1.6320801E0,-4.1137466E-1,-1.3468069E0,-1.4786993E0,-1.629866E0,6.062804E-1,1.3391768E0,7.107461E-1,-1.4643352E0,-4.22155E-2,8.068992E-2,1.4345757E0,8.160611E-2,-8.42888E-2,-6.645143E-1,-1.0754983E0,-1.4769775E0,-1.4027671E0,-1.5545266E0,-1.5827919E0,-1.6314178E0,5.6351364E-1,1.6368046E0,1.3702482E0,-9.289698E-1,8.6002246E-2,-5.0964233E-2,-1.6031318E0,-2.276995E-1,5.842486E-4,8.081522E-2,2.292953E-1,-1.3572496E0,-1.0033215E0,5.282389E-1,-1.4546354E0,-4.593461E-1,-7.8618485E-1,-1.5354733E0,-1.4227949E0,1.1909778E0,-1.556237E0,1.1707098E-2,-1.6277206E0,-1.5607511E0,-1.2856193E0,-8.157386E-2,4.861352E-2,2.1517782E-2,8.316552E-2,3.761127E-2,7.027409E-2,-1.6403517E-2,3.0983973E-2,-9.014135E-2,-1.3868557E-2,-8.21186E-2,-5.5727895E-2,3.9935198E-2,-1.31268725E-2,6.7457005E-2,-7.296437E-2,6.5261595E-2,-5.3638764E-2,2.81806E-2,5.7556678E-2,-7.378527E-2,-7.7429175E-2,-4.0560182E-2,3.1166358E-2,-6.298765E-2,-7.205032E-2,1.3684879E-2,-7.762158E-2,-2.821582E-2,-7.224408E-2,-3.6246136E-2,-7.8265026E-2,8.727617E-2,-6.312656E-2,-7.827332E-2,-5.0112005E-2,-8.145741E-2,4.026715E-2,-7.8342065E-2,3.418915E-2,-7.625508E-2],"categories":[],"categories_nodes":[],"categories_segments":[],"categories_sizes":[],"default_left":[0,0,0,0,0,0,0,0,0,0,0,0,0,0,0,0,0,0,0,0,0,0,0,0,0,0,0,0,0,0,0,0,0,0,0,0,0,0,0,0,0,0,0,0,0,0,0,0,0,0,0,0,0,0,0,0,0,0,0,0,0,0,0,0,0,0,0,0,0,0,0,0,0,0,0,0,0,0,0,0,0,0,0,0,0,0,0,0,0,0,0,0,0,0,0,0,0],"id":5,"left_children":[1,3,5,7,9,11,13,15,17,19,21,23,25,27,29,31,33,35,37,-1,-1,39,-1,41,43,45,47,49,51,53,55,57,59,61,63,-1,-1,65,67,-1,-1,69,71,73,75,77,79,81,83,85,87,89,-1,91,93,95,-1,-1,-1,-1,-1,-1,-1,-1,-1,-1,-1,-1,-1,-1,-1,-1,-1,-1,-1,-1,-1,-1,-1,-1,-1,-1,-1,-1,-1,-1,-1,-1,-1,-1,-1,-1,-1,-1,-1,-1,-1],"loss_changes":[3.7020994E5,1.0644844E3,7.938125E2,2.4475299E2,7.8125E-1,1.5998517E2,9.0171875E1,1.2597363E2,1.5887253E1,6.7247925E0,6.25E-2,5.3465736E1,8.602112E0,2.3807617E1,4.25E0,3.8764954E1,2.2698242E1,6.4677343E0,8.887955E0,0E0,0E0,4.038391E0,0E0,1.1288456E2,1.4734952E2,1.9222603E1,6.5976562E0,1.099126E2,6.6293945E0,1.5268555E0,8.28125E-1,4.61687E1,4.5827484E-1,1.90271E1,6.0975904E0,0E0,0E0,2.239708E0,5.1669607E0,0E0,0E0,1.2496648E2,1.5392563E1,3.1004639E1,1.00753876E2,2.7502365E0,2.7884087E1,9.710712E0,2.3084412E0,3.198584E1,2.5053263E1,5.2382812E0,0E0,1.9348145E-1,2.0755371E1,5.746994E0,0E0,0E0,0E0,0E0,0E0,0E0,0E0,0E0,0E0,0E0,0E0,0E0,0E0,0E0,0E0,0E0,0E0,0E0,0E0,0E0,0E0,0E0,0E0,0E0,0E0,0E0,0E0,0E0,0E0,0E0,0E0,0E0,0E0,0E0,0E0,0E0,0E0,0E0,0E0,0E0,0E0],"parents":[2147483647,0,0,1,1,2,2,3,3,4,4,5,5,6,6,7,7,8,8,9,9,10,10,11,11,12,12,13,13,14,14,15,15,16,16,17,17,18,18,21,21,23,23,24,24,25,25,26,26,27,27,28,28,29,29,30,30,31,31,32,32,33,33,34,34,37,37,38,38,41,41,42,42,43,43,44,44,45,45,46,46,47,47,48,48,49,49,50,50,51,51,53,53,54,54,55,55],"right_children":[2,4,6,8,10,12,14,16,18,20,22,24,26,28,30,32,34,36,38,-1,-1,40,-1,42,44,46,48,50,52,54,56,58,60,62,64,-1,-1,66,68,-1,-1,70,72,74,76,78,80,82,84,86,88,90,-1,92,94,96,-1,-1,-1,-1,-1,-1,-1,-1,-1,-1,-1,-1,-1,-1,-1,-1,-1,-1,-1,-1,-1,-1,-1,-1,-1,-1,-1,-1,-1,-1,-1,-1,-1,-1,-1,-1,-1,-1,-1,-1,-1],"split_conditions":[-1.3139519E-1,-3.294603E-2,1.6341561E-1,-4.3287605E-2,2.6418656E-2,2.5837523E-1,1.257616E-1,2.5683573E-1,-9.534961E-2,-6.4060025E-2,2.9251963E-2,-6.99234E-3,-4.610604E-2,4.7618884E-1,4.6950606E-1,1.349992E0,-2.6804549E-1,-2.182665E-1,-5.692348E-2,-4.22155E-2,8.068992E-2,5.700908E-1,8.160611E-2,1.0608095E-1,9.609616E-2,2.0294395E-1,6.7487955E-2,6.357584E-1,7.6111645E-2,7.887071E-1,-9.949301E-2,-2.7983928E-1,6.451754E-1,4.42299E-1,3.022639E-1,8.6002246E-2,-5.0964233E-2,-5.9623837E-2,3.6548346E-2,5.842486E-4,8.081522E-2,-7.8997314E-2,3.7577495E-1,2.3000148E-1,-6.4101905E-2,1.13278866E-1,3.58729E-1,-2.8368753E-1,5.03244E-1,8.069581E-1,8.2790244E-1,3.4237778E-1,1.1707098E-2,2.1624357E-1,6.821867E-1,9.016828E-1,-8.157386E-2,4.861352E-2,2.1517782E-2,8.316552E-2,3.761127E-2,7.027409E-2,-1.6403517E-2,3.0983973E-2,-9.014135E-2,-1.3868557E-2,-8.21186E-2,-5.5727895E-2,3.9935198E-2,-1.31268725E-2,6.7457005E-2,-7.296437E-2,6.5261595E-2,-5.3638764E-2,2.81806E-2,5.7556678E-2,-7.378527E-2,-7.7429175E-2,-4.0560182E-2,3.1166358E-2,-6.298765E-2,-7.205032E-2,1.3684879E-2,-7.762158E-2,-2.821582E-2,-7.224408E-2,-3.6246136E-2,-7.8265026E-2,8.727617E-2,-6.312656E-2,-7.827332E-2,-5.0112005E-2,-8.145741E-2,4.026715E-2,-7.8342065E-2,3.418915E-2,-7.625508E-2],"split_indices":[60,28,113,98,91,6,32,121,40,37,118,60,50,19,32,39,76,73,52,0,0,63,0,38,76,48,100,9,41,6,0,18,127,106,39,0,0,19,39,0,0,76,93,18,3,87,100,3,100,42,42,60,0,114,93,54,0,0,0,0,0,0,0,0,0,0,0,0,0,0,0,0,0,0,0,0,0,0,0,0,0,0,0,0,0,0,0,0,0,0,0,0,0,0,0,0,0],"split_type":[0,0,0,0,0,0,0,0,0,0,0,0,0,0,0,0,0,0,0,0,0,0,0,0,0,0,0,0,0,0,0,0,0,0,0,0,0,0,0,0,0,0,0,0,0,0,0,0,0,0,0,0,0,0,0,0,0,0,0,0,0,0,0,0,0,0,0,0,0,0,0,0,0,0,0,0,0,0,0,0,0,0,0,0,0,0,0,0,0,0,0,0,0,0,0,0,0],"sum_hessian":[1.4242898E5,7.103591E4,7.139308E4,1.2625326E3,6.9773375E4,9.018041E2,7.049127E4,1.2061074E3,5.6425133E1,7.8962197E0,6.976548E4,6.4660583E2,2.5519824E2,4.2237524E3,6.626752E4,8.865641E2,3.1954333E2,3.4635258E0,5.2961605E1,1.2087458E0,6.687474E0,1.6154463E1,6.974932E4,2.823304E2,3.6427542E2,8.329169E1,1.7190656E2,2.112049E3,2.1117034E3,2.1200745E3,6.4147445E4,8.514794E2,3.5084682E1,3.1530762E2,4.235746E0,2.2242687E0,1.2392572E0,4.7517834E1,5.4437733E0,1.9039215E0,1.4250542E1,2.2652994E2,5.5800472E1,2.8376917E2,8.0506256E1,5.1378544E1,3.191314E1,1.3666677E1,1.5823988E2,2.0959487E3,1.6100395E1,2.1097546E3,1.9486146E0,6.9386395E2,1.4262106E3,1.1685709E1,6.4135758E4,2.0888412E2,6.425953E2,3.3868744E1,1.2159374E0,3.0897372E2,6.333887E0,1.4971497E0,2.738596E0,1.4624698E0,4.6055363E1,2.9680686E0,2.4757047E0,1.5739134E2,6.913859E1,5.3820587E1,1.979887E0,2.7181635E2,1.19528E1,6.1486576E1,1.9019682E1,4.457414E1,6.804406E0,1.3521042E1,1.83921E1,8.483657E0,5.183021E0,1.553641E2,2.875772E0,2.0314075E3,6.454124E1,2.6359987E0,1.3464396E1,6.502683E1,2.0447279E3,1.8996837E0,6.919643E2,3.5857017E0,1.4226249E3,1.2015527E0,1.0484156E1],"tree_param":{"num_deleted":"0","num_feature":"128","num_nodes":"97","size_leaf_vector":"1"}},{"base_weights":[1.4903896E-3,1.5668492E0,-1.5582408E0,4.303511E-1,1.5790688E0,-5.191912E-1,-1.5709742E0,2.354537E-1,1.2895699E0,1.1271424E0,1.5824658E0,-5.0978992E-2,-9.578187E-1,-1.4258798E0,-1.5798277E0,1.7239912E-1,1.2436051E0,8.631757E-3,1.4512603E0,8.0799323E-1,1.3337656E0,1.3954571E0,7.912549E-2,1.6670623E-1,-1.2107805E0,-1.2795088E0,-5.657426E-1,-1.4453135E0,-1.1560118E0,-1.5194194E0,-1.5815704E0,2.675622E-1,-5.562585E-1,1.5631855E0,-1.4283975E0,1.263223E0,-7.617095E-1,1.5502254E0,1.0711738E0,9.838821E-1,-3.6548355E-1,1.3914263E0,-8.9687014E-1,1.0839297E0,7.8776285E-2,-6.8877E-1,8.566794E-1,1.241617E0,-1.309877E0,-1.1620508E0,-1.5034384E0,4.983288E-1,-1.2763739E0,-1.4464936E0,6.7128815E-2,-5.566286E-1,-1.4984149E0,-1.5232313E0,-9.570685E-1,-1.563917E0,-7.912881E-2,-3.922775E-2,1.7023895E-2,7.841711E-2,-3.5302203E-2,8.0972806E-2,4.929433E-2,-9.294214E-2,-3.1419817E-2,8.724515E-2,-7.6923156E-3,-8.556639E-2,-6.3376673E-3,8.726327E-2,7.3165976E-2,1.7316431E-3,8.035948E-2,5.3901352E-2,-3.2391135E-2,-4.944028E-2,7.518826E-2,7.084886E-2,-3.9925788E-2,-8.56233E-2,7.61794E-2,6.926276E-2,-1.3336347E-2,-1.6946513E-3,-5.185929E-2,5.1500794E-2,-2.0186955E-2,7.7615924E-2,3.7786685E-2,-7.190671E-2,2.7304133E-2,-6.335529E-2,-5.554873E-3,-7.7126145E-2,1.1916315E-2,4.0795382E-2,-6.3968405E-2,1.478328E-2,-6.9664955E-2,-7.009263E-2,-7.598915E-2,-4.472273E-2,4.1406453E-2,-3.150455E-2,-7.567684E-2,-7.642206E-2,-5.8659274E-2,1.2048705E-1,-7.022812E-2,-7.845866E-2,-7.307656E-2],"categories":[],"categories_nodes":[],"categories_segments":[],"categories_sizes":[],"default_left":[0,0,0,0,0,0,0,0,0,0,0,0,0,0,0,0,0,0,0,0,0,0,0,0,0,0,0,0,0,0,0,0,0,0,0,0,0,0,0,0,0,0,0,0,0,0,0,0,0,0,0,0,0,0,0,0,0,0,0,0,0,0,0,0,0,0,0,0,0,0,0,0,0,0,0,0,0,0,0,0,0,0,0,0,0,0,0,0,0,0,0,0,0,0,0,0,0,0,0,0,0,0,0,0,0,0,0,0,0,0,0,0,0,0,0],"id":6,"left_children":[1,3,5,7,9,11,13,15,17,19,21,23,25,27,29,31,33,35,37,39,41,43,-1,45,47,49,51,53,55,57,59,61,63,65,67,69,71,73,75,77,79,81,83,85,-1,87,89,91,93,95,97,99,101,103,-1,105,107,109,111,113,-1,-1,-1,-1,-1,-1,-1,-1,-1,-1,-1,-1,-1,-1,-1,-1,-1,-1,-1,-1,-1,-1,-1,-1,-1,-1,-1,-1,-1,-1,-1,-1,-1,-1,-1,-1,-1,-1,-1,-1,-1,-1,-1,-1,-1,-1,-1,-1,-1,-1,-1,-1,-1,-1,-1],"loss_changes":[3.4114244E5,9.682031E2,9.256875E2,1.24079575E2,1.0546875E2,1.7395857E2,8.8296875E1,3.8300007E1,2.8244324E1,3.3659973E1,3.125E-2,1.036812E2,5.4922424E1,2.043457E1,6.3125E0,3.9486813E1,3.0556484E1,1.5159414E1,4.147583E0,4.19888E1,4.0362793E1,5.4278564E-1,0E0,2.0393053E2,1.594278E1,5.873871E0,1.4947862E2,1.2410156E1,5.47247E1,3.5322266E0,5.625E-1,3.8650368E1,2.0937183E1,6.12648E-1,9.471078E-1,4.2790537E0,5.60554E0,1.0523987E0,1.408856E1,2.7242249E1,3.092031E1,1.7222778E1,1.5856535E1,2.9650908E0,0E0,3.5068855E1,4.18956E1,3.426504E-2,1.5038437E1,1.7317062E1,5.7476807E0,4.471266E1,2.1932022E1,1.1628418E1,0E0,4.57959E1,1.9281921E0,2.8666992E0,1.9485558E1,1.3125E0,0E0,0E0,0E0,0E0,0E0,0E0,0E0,0E0,0E0,0E0,0E0,0E0,0E0,0E0,0E0,0E0,0E0,0E0,0E0,0E0,0E0,0E0,0E0,0E0,0E0,0E0,0E0,0E0,0E0,0E0,0E0,0E0,0E0,0E0,0E0,0E0,0E0,0E0,0E0,0E0,0E0,0E0,0E0,0E0,0E0,0E0,0E0,0E0,0E0,0E0,0E0,0E0,0E0,0E0,0E0],"parents":[2147483647,0,0,1,1,2,2,3,3,4,4,5,5,6,6,7,7,8,8,9,9,10,10,11,11,12,12,13,13,14,14,15,15,16,16,17,17,18,18,19,19,20,20,21,21,23,23,24,24,25,25,26,26,27,27,28,28,29,29,30,30,31,31,32,32,33,33,34,34,35,35,36,36,37,37,38,38,39,39,40,40,41,41,42,42,43,43,45,45,46,46,47,47,48,48,49,49,50,50,51,51,52,52,53,53,55,55,56,56,57,57,58,58,59,59],"right_children":[2,4,6,8,10,12,14,16,18,20,22,24,26,28,30,32,34,36,38,40,42,44,-1,46,48,50,52,54,56,58,60,62,64,66,68,70,72,74,76,78,80,82,84,86,-1,88,90,92,94,96,98,100,102,104,-1,106,108,110,112,114,-1,-1,-1,-1,-1,-1,-1,-1,-1,-1,-1,-1,-1,-1,-1,-1,-1,-1,-1,-1,-1,-1,-1,-1,-1,-1,-1,-1,-1,-1,-1,-1,-1,-1,-1,-1,-1,-1,-1,-1,-1,-1,-1,-1,-1,-1,-1,-1,-1,-1,-1,-1,-1,-1,-1],"split_conditions":[-1.6186014E-1,-6.573366E-2,3.014542E-1,4.7583276E-1,-2.3577806E-2,1.5436286E-1,7.594325E-2,5.412072E-3,-9.666579E-2,5.8104217E-2,7.2394907E-3,-8.877301E-2,9.609616E-2,5.097556E-2,3.8862523E-1,-1.8419617E-1,1.3865614E-1,2.372185E-1,-5.692348E-2,1.691831E-1,4.6547908E-1,-9.731745E-2,7.912549E-2,-1.7797154E-1,-9.534961E-2,-2.7724057E-2,1.6954988E-1,-5.3030647E-2,2.623635E-1,9.969882E-1,4.0110776E-1,1.9474748E-1,-3.6523804E-1,-2.4941441E-1,1.5618905E-2,2.4758288E-1,7.449819E-1,2.5134295E-1,-2.7983928E-1,-1.4801896E-1,1.3882363E0,-4.5842403E-1,1.2325317E0,3.510856E-1,7.8776285E-2,-3.2327142E-1,-2.6881099E-3,-2.1192701E-1,-9.149258E-2,6.05371E-2,3.3014503E-1,1.2734982E-1,1.1951992E-1,5.003991E-1,6.7128815E-2,6.3451815E-1,5.009638E-1,1.1678532E0,7.510706E-1,1.0488935E0,-7.912881E-2,-3.922775E-2,1.7023895E-2,7.841711E-2,-3.5302203E-2,8.0972806E-2,4.929433E-2,-9.294214E-2,-3.1419817E-2,8.724515E-2,-7.6923156E-3,-8.556639E-2,-6.3376673E-3,8.726327E-2,7.3165976E-2,1.7316431E-3,8.035948E-2,5.3901352E-2,-3.2391135E-2,-4.944028E-2,7.518826E-2,7.084886E-2,-3.9925788E-2,-8.56233E-2,7.61794E-2,6.926276E-2,-1.3336347E-2,-1.6946513E-3,-5.185929E-2,5.1500794E-2,-2.0186955E-2,7.7615924E-2,3.7786685E-2,-7.190671E-2,2.7304133E-2,-6.335529E-2,-5.554873E-3,-7.7126145E-2,1.1916315E-2,4.0795382E-2,-6.3968405E-2,1.478328E-2,-6.9664955E-2,-7.009263E-2,-7.598915E-2,-4.472273E-2,4.1406453E-2,-3.150455E-2,-7.567684E-2,-7.642206E-2,-5.8659274E-2,1.2048705E-1,-7.022812E-2,-7.845866E-2,-7.307656E-2],"split_indices":[116,61,116,78,28,6,32,67,107,27,28,98,76,32,32,68,121,58,52,121,106,16,0,19,40,119,42,67,54,82,66,118,114,15,27,121,127,27,18,6,39,93,39,106,0,25,45,3,67,19,48,45,76,76,0,35,82,116,1,1,0,0,0,0,0,0,0,0,0,0,0,0,0,0,0,0,0,0,0,0,0,0,0,0,0,0,0,0,0,0,0,0,0,0,0,0,0,0,0,0,0,0,0,0,0,0,0,0,0,0,0,0,0,0,0],"split_type":[0,0,0,0,0,0,0,0,0,0,0,0,0,0,0,0,0,0,0,0,0,0,0,0,0,0,0,0,0,0,0,0,0,0,0,0,0,0,0,0,0,0,0,0,0,0,0,0,0,0,0,0,0,0,0,0,0,0,0,0,0,0,0,0,0,0,0,0,0,0,0,0,0,0,0,0,0,0,0,0,0,0,0,0,0,0,0,0,0,0,0,0,0,0,0,0,0,0,0,0,0,0,0,0,0,0,0,0,0,0,0,0,0,0,0],"sum_hessian":[1.3972416E5,6.97363E4,6.998785E4,7.4194476E2,6.899435E4,8.474615E2,6.914039E4,6.04964E2,1.3698079E2,5.152184E2,6.847913E4,4.1007123E2,4.3739023E2,3.977793E3,6.5162598E4,5.695575E2,3.5406532E1,1.5433998E1,1.2154678E2,2.0285878E2,3.123596E2,1.7361223E1,6.846177E4,3.4526688E2,6.480435E1,2.3999669E2,1.9739355E2,3.7098354E3,2.6795743E2,1.8312206E3,6.333138E4,5.0394278E2,6.56147E1,3.1694668E1,3.7118633E0,5.8965707E0,9.537428E0,9.598399E1,2.556279E1,1.7650444E2,2.6354342E1,3.045691E2,7.790489E0,6.81985E0,1.0541374E1,1.5408139E2,1.9118549E2,2.43294E0,6.2371414E1,1.581222E2,8.187448E1,7.899648E1,1.1839707E2,3.7083496E3,1.4857397E0,9.7622314E1,1.7033513E2,1.8185453E3,1.2675305E1,3.4274368E3,5.990394E4,3.250942E1,4.7143335E2,4.214886E0,6.139981E1,2.8557377E1,3.1372902E0,2.2460232E0,1.4658401E0,4.436113E0,1.4604578E0,3.6907144E0,5.846713E0,2.8642899E1,6.7341095E1,8.813116E0,1.6749674E1,1.6696616E2,9.538275E0,1.9839302E1,6.51504E0,3.011366E2,3.4325109E0,5.8798003E0,1.9106888E0,5.634332E0,1.1855175E0,5.3645977E1,1.0043541E2,1.6815758E2,2.3027905E1,1.2245796E0,1.2083604E0,5.8411266E1,3.9601483E0,1.4364728E2,1.4474918E1,8.014491E1,1.7295705E0,6.71167E1,1.1879788E1,8.126709E0,1.1027036E2,2.3067021E3,1.4016475E3,7.8563545E1,1.905877E1,3.1018617E0,1.6723326E2,1.7912626E3,2.728275E1,1.4094045E0,1.1265901E1,3.2577808E3,1.6965608E2],"tree_param":{"num_deleted":"0","num_feature":"128","num_nodes":"115","size_leaf_vector":"1"}},{"base_weights":[6.737016E-4,1.5221641E0,-1.5152025E0,6.6817385E-1,1.5380375E0,-5.826601E-1,-1.5264461E0,7.5830406E-1,-1.1207916E0,1.2974727E0,7.6905236E-2,-3.7580274E-2,-8.522803E-1,-1.3811519E0,-1.5359042E0,6.406262E-1,1.5154958E0,6.741822E-2,-1.3366029E0,6.916707E-1,7.696956E-2,2.3500876E-1,-1.1677467E0,-6.539438E-1,-1.2596502E0,-1.3267525E0,-1.4726914E0,-1.4860775E0,-1.5375546E0,4.1459924E-1,9.866248E-1,6.3594204E-1,1.5363749E0,-9.517961E-2,6.543503E-1,-1.4189073E0,6.153525E-2,7.557519E-2,-8.342608E-2,-2.2162338E-1,1.2203003E0,-1.4188373E0,-7.188405E-2,-1.6724665E-1,-1.1909698E0,-1.344653E0,1.2690092E0,-1.3599741E0,-5.472475E-1,-9.022543E-1,-1.4810193E0,-1.5331718E0,-1.4634662E0,-1.5226209E0,-7.691445E-2,5.074811E-2,1.54146915E-2,5.1591016E-2,-4.060604E-2,7.842954E-2,-6.2359482E-2,7.741496E-2,3.813954E-2,8.349599E-2,-9.2227526E-2,-7.354638E-2,-3.662252E-2,-3.5998914E-3,-6.352278E-2,7.415443E-2,-1.9764712E-2,-0E0,-7.357611E-2,-4.3276086E-2,9.845691E-2,-3.0355513E-2,3.066336E-2,1.04725026E-1,-6.0796436E-2,-7.015276E-2,1.2325923E-2,4.449276E-3,8.2415596E-2,-4.8335746E-2,-6.869741E-2,-5.744127E-2,3.27191E-3,9.229856E-2,-5.662598E-2,-6.03373E-2,-7.430153E-2,-2.754202E-2,-7.673266E-2,-2.2901406E-3,-7.3401004E-2,-3.4104954E-2,-7.616464E-2],"categories":[],"categories_nodes":[],"categories_segments":[],"categories_sizes":[],"default_left":[0,0,0,0,0,0,0,0,0,0,0,0,0,0,0,0,0,0,0,0,0,0,0,0,0,0,0,0,0,0,0,0,0,0,0,0,0,0,0,0,0,0,0,0,0,0,0,0,0,0,0,0,0,0,0,0,0,0,0,0,0,0,0,0,0,0,0,0,0,0,0,0,0,0,0,0,0,0,0,0,0,0,0,0,0,0,0,0,0,0,0,0,0,0,0,0,0],"id":7,"left_children":[1,3,5,7,9,11,13,15,17,19,-1,21,23,25,27,29,31,33,35,37,-1,39,41,43,45,47,49,51,53,55,57,59,61,-1,63,65,-1,-1,-1,67,69,71,73,75,77,79,81,83,85,87,89,91,93,95,-1,-1,-1,-1,-1,-1,-1,-1,-1,-1,-1,-1,-1,-1,-1,-1,-1,-1,-1,-1,-1,-1,-1,-1,-1,-1,-1,-1,-1,-1,-1,-1,-1,-1,-1,-1,-1,-1,-1,-1,-1,-1,-1],"loss_changes":[3.149663E5,9.235625E2,7.169531E2,2.0063068E2,6.09375E-1,1.1971634E2,9.2375E1,1.05226746E2,1.543322E1,2.55962E0,0E0,8.330598E1,4.3784515E1,2.0104492E1,4.703125E0,8.001129E1,2.6074219E0,1.0635158E1,1.0877144E1,1.1702109E1,0E0,9.801079E1,1.4303017E1,9.5797226E1,3.8499084E1,6.69082E1,6.9384766E0,1.6479492E0,1.09375E-1,3.9443176E1,3.3024475E1,7.203066E0,1.0829773E0,0E0,1.8556528E1,1.4243774E0,0E0,0E0,0E0,2.3188972E1,2.9454468E1,3.2676697E0,1.6221733E1,6.622749E1,1.4469528E1,1.6187012E1,2.412713E0,1.33046875E1,3.9303696E1,1.4421652E1,1.6357422E0,6.645508E-1,8.761475E0,1.3095703E0,0E0,0E0,0E0,0E0,0E0,0E0,0E0,0E0,0E0,0E0,0E0,0E0,0E0,0E0,0E0,0E0,0E0,0E0,0E0,0E0,0E0,0E0,0E0,0E0,0E0,0E0,0E0,0E0,0E0,0E0,0E0,0E0,0E0,0E0,0E0,0E0,0E0,0E0,0E0,0E0,0E0,0E0,0E0],"parents":[2147483647,0,0,1,1,2,2,3,3,4,4,5,5,6,6,7,7,8,8,9,9,11,11,12,12,13,13,14,14,15,15,16,16,17,17,18,18,19,19,21,21,22,22,23,23,24,24,25,25,26,26,27,27,28,28,29,29,30,30,31,31,32,32,34,34,35,35,39,39,40,40,41,41,42,42,43,43,44,44,45,45,46,46,47,47,48,48,49,49,50,50,51,51,52,52,53,53],"right_children":[2,4,6,8,10,12,14,16,18,20,-1,22,24,26,28,30,32,34,36,38,-1,40,42,44,46,48,50,52,54,56,58,60,62,-1,64,66,-1,-1,-1,68,70,72,74,76,78,80,82,84,86,88,90,92,94,96,-1,-1,-1,-1,-1,-1,-1,-1,-1,-1,-1,-1,-1,-1,-1,-1,-1,-1,-1,-1,-1,-1,-1,-1,-1,-1,-1,-1,-1,-1,-1,-1,-1,-1,-1,-1,-1,-1,-1,-1,-1,-1,-1],"split_conditions":[-1.3139519E-1,-3.294603E-2,3.014542E-1,-9.534961E-2,7.2394907E-3,-6.99234E-3,1.257616E-1,4.4269654E-1,-1.0342659E-1,7.5766355E-2,7.6905236E-2,-2.9531536E-1,-1.14681944E-1,7.723113E-1,4.6950606E-1,5.412072E-3,6.316739E-1,-4.985571E-3,4.8986632E-1,7.1015164E-2,7.696956E-2,-6.198691E-2,-1.0302338E-1,2.5837523E-1,2.048811E-1,4.9735916E-1,1.35254E-1,7.887071E-1,4.0110776E-1,8.602548E-2,-8.6153924E-2,3.0083779E-1,3.34205E-1,-9.517961E-2,-1.5688911E-2,-9.149258E-2,6.153525E-2,7.557519E-2,-8.342608E-2,-2.3257625E-1,-1.4803056E-1,-3.1229568E-1,2.5823817E-1,9.609616E-2,-5.905831E-2,2.5049275E-1,-2.9132858E-2,2.5917962E-1,5.712751E-1,5.175688E-1,6.1471134E-2,1.956085E-1,6.821867E-1,2.9722905E-1,-7.691445E-2,5.074811E-2,1.54146915E-2,5.1591016E-2,-4.060604E-2,7.842954E-2,-6.2359482E-2,7.741496E-2,3.813954E-2,8.349599E-2,-9.2227526E-2,-7.354638E-2,-3.662252E-2,-3.5998914E-3,-6.352278E-2,7.415443E-2,-1.9764712E-2,-0E0,-7.357611E-2,-4.3276086E-2,9.845691E-2,-3.0355513E-2,3.066336E-2,1.04725026E-1,-6.0796436E-2,-7.015276E-2,1.2325923E-2,4.449276E-3,8.2415596E-2,-4.8335746E-2,-6.869741E-2,-5.744127E-2,3.27191E-3,9.229856E-2,-5.662598E-2,-6.03373E-2,-7.430153E-2,-2.754202E-2,-7.673266E-2,-2.2901406E-3,-7.3401004E-2,-3.4104954E-2,-7.616464E-2],"split_indices":[60,28,116,40,28,60,32,31,98,22,0,96,127,114,32,67,78,36,67,8,0,76,39,6,18,50,88,6,66,70,12,8,52,0,45,67,0,0,0,49,73,47,93,76,113,36,27,1,87,87,54,114,93,113,0,0,0,0,0,0,0,0,0,0,0,0,0,0,0,0,0,0,0,0,0,0,0,0,0,0,0,0,0,0,0,0,0,0,0,0,0,0,0,0,0,0,0],"split_type":[0,0,0,0,0,0,0,0,0,0,0,0,0,0,0,0,0,0,0,0,0,0,0,0,0,0,0,0,0,0,0,0,0,0,0,0,0,0,0,0,0,0,0,0,0,0,0,0,0,0,0,0,0,0,0,0,0,0,0,0,0,0,0,0,0,0,0,0,0,0,0,0,0,0,0,0,0,0,0,0,0,0,0,0,0,0,0,0,0,0,0,0,0,0,0,0,0],"sum_hessian":[1.3656219E5,6.815492E4,6.840727E4,1.2438976E3,6.691102E4,8.151205E2,6.759215E4,1.1843425E3,5.9555073E1,1.9614182E1,6.689141E4,2.699198E2,5.452007E2,4.132625E3,6.3459523E4,1.0253118E3,1.5903073E2,9.093523E0,5.046155E1,5.8254933E0,1.3788687E1,2.1746043E2,5.2459366E1,3.6701688E2,1.781838E2,2.5938257E3,1.5387993E3,2.0393821E3,6.1420145E4,6.204836E2,4.0482812E2,3.8715825E0,1.5515915E2,1.9959847E0,7.097538E0,4.897516E1,1.4863929E0,4.3817744E0,1.4437189E0,1.4857811E2,6.8882324E1,4.2581997E1,9.877369E0,1.9269667E2,1.7432019E2,1.724724E2,5.711419E0,2.487604E3,1.0622162E2,2.2471848E1,1.5163275E3,6.579437E2,1.3814384E3,2.8947249E3,5.8525418E4,9.307038E1,5.274132E2,3.950015E2,9.826623E0,2.6359136E0,1.235669E0,1.5257787E2,2.5812907E0,5.098618E0,1.9989201E0,4.5283577E1,3.6915812E0,1.3020534E2,1.837278E1,5.9305885E1,9.576434E0,1.4925144E0,4.108948E1,7.1886854E0,2.688683E0,1.2333869E2,6.935798E1,1.2215549E0,1.7309863E2,1.6643814E2,6.034258E0,1.4834514E0,4.2279677E0,8.584748E1,2.4017566E3,5.3634853E1,5.258676E1,1.6494646E0,2.0822384E1,2.8000233E1,1.4883273E3,1.148537E0,6.567952E2,4.497294E0,1.376941E3,2.5118709E0,2.892213E3],"tree_param":{"num_deleted":"0","num_feature":"128","num_nodes":"97","size_leaf_vector":"1"}},{"base_weights":[-1.3482764E-3,1.4817128E0,-1.4754364E0,4.5442125E-1,1.4955145E0,-5.587453E-1,-1.4867337E0,5.686454E-1,-1.163997E0,1.4962173E0,2.3044761E-2,-3.6106408E-1,-1.2037303E0,-1.3493141E0,-1.4956923E0,3.498402E-1,1.1024023E0,-1.2697297E0,1.719244E-1,1.94546E-1,1.4968314E0,5.931015E-1,-1.106298E0,-2.6686218E-1,-1.2234825E0,-1.3625675E0,-6.991112E-1,-1.2800181E0,-1.4424666E0,-1.4461459E0,-1.497765E0,2.4323253E-1,1.0905005E0,1.1900955E0,-6.180858E-1,-1.4258054E-1,-1.4303908E0,8.7594265E-1,-5.239466E-2,1.3009864E0,-1.5537741E0,1.2757664E0,7.491081E-2,8.3472145E-1,-8.118529E-2,-1.5765339E0,8.049868E-2,-4.13529E-1,1.034187E0,-1.2249668E-1,-1.403747E0,6.239141E-2,-1.3865188E0,-5.0594818E-2,-1.3849941E0,-1.3107332E0,-7.329997E-1,-1.0596153E0,-1.4466333E0,-1.4118118E0,-7.457656E-2,-1.2019212E0,-7.48915E-2,2.3452617E-2,-1.3955416E-2,7.0095055E-2,-3.4197964E-2,5.0332885E-2,7.6562576E-2,4.6881657E-2,-6.5120965E-2,4.0020622E-2,-8.929381E-2,-7.627228E-2,-5.4117497E-2,-1.1195655E-2,9.020679E-2,3.9340984E-2,7.948693E-2,7.619387E-3,-8.774297E-2,-8.795135E-2,6.540994E-2,6.820298E-2,-1.3916198E-3,-9.364204E-2,-2.9947434E-2,2.662146E-3,-4.2442486E-2,-6.17971E-2,7.333317E-2,-2.8117059E-2,9.3137726E-2,-7.613232E-2,-1.9037899E-2,-7.188859E-2,-5.356313E-2,5.5135634E-2,-5.920872E-2,-7.353267E-2,5.240655E-3,-6.585157E-2,1.4455514E-2,-8.74732E-3,-6.965018E-2,-7.260298E-2,2.7352354E-2,5.695612E-3,-7.238708E-2,-7.103475E-2,3.0913496E-2,-7.033936E-2,2.9851023E-2],"categories":[],"categories_nodes":[],"categories_segments":[],"categories_sizes":[],"default_left":[0,0,0,0,0,0,0,0,0,0,0,0,0,0,0,0,0,0,0,0,0,0,0,0,0,0,0,0,0,0,0,0,0,0,0,0,0,0,0,0,0,0,0,0,0,0,0,0,0,0,0,0,0,0,0,0,0,0,0,0,0,0,0,0,0,0,0,0,0,0,0,0,0,0,0,0,0,0,0,0,0,0,0,0,0,0,0,0,0,0,0,0,0,0,0,0,0,0,0,0,0,0,0,0,0,0,0,0,0,0,0,0,0],"id":8,"left_children":[1,3,5,7,9,11,13,15,17,19,21,23,25,27,29,31,33,35,37,39,41,43,45,47,49,51,53,55,57,59,61,63,65,67,69,71,73,75,-1,77,79,81,-1,83,-1,85,-1,87,89,91,93,-1,95,97,99,101,103,105,107,109,-1,111,-1,-1,-1,-1,-1,-1,-1,-1,-1,-1,-1,-1,-1,-1,-1,-1,-1,-1,-1,-1,-1,-1,-1,-1,-1,-1,-1,-1,-1,-1,-1,-1,-1,-1,-1,-1,-1,-1,-1,-1,-1,-1,-1,-1,-1,-1,-1,-1,-1,-1,-1],"loss_changes":[2.9167522E5,9.426875E2,6.9265625E2,1.6304073E2,6.775E1,1.0369461E2,8.0859375E1,9.603912E1,8.340469E0,5.225E1,2.0274603E1,5.0509384E1,1.5007202E1,2.5666504E1,5.875E0,4.6003036E1,3.6245514E1,9.589272E0,3.7509844E0,6.0396374E1,1.959375E1,1.1324959E1,1.3703734E1,1.0736412E2,1.1998451E1,9.253418E0,2.034691E1,3.8716064E1,2.3476562E0,3.3896484E0,7.03125E-1,6.034494E1,4.0734596E1,1.3851044E1,1.2528975E1,1.0960729E1,1.1328888E0,3.0781353E0,0E0,2.4810753E0,4.330097E0,4.0466003E1,0E0,8.847558E0,0E0,2.265091E0,0E0,1.0287545E2,5.6136837E1,7.6708274E0,6.149208E0,0E0,1.9182434E0,3.1338797E1,2.9999962E0,2.2291504E1,4.5437286E1,1.2277761E1,3.1000977E0,2.5854736E1,0E0,5.3013096E0,0E0,0E0,0E0,0E0,0E0,0E0,0E0,0E0,0E0,0E0,0E0,0E0,0E0,0E0,0E0,0E0,0E0,0E0,0E0,0E0,0E0,0E0,0E0,0E0,0E0,0E0,0E0,0E0,0E0,0E0,0E0,0E0,0E0,0E0,0E0,0E0,0E0,0E0,0E0,0E0,0E0,0E0,0E0,0E0,0E0,0E0,0E0,0E0,0E0,0E0,0E0],"parents":[2147483647,0,0,1,1,2,2,3,3,4,4,5,5,6,6,7,7,8,8,9,9,10,10,11,11,12,12,13,13,14,14,15,15,16,16,17,17,18,18,19,19,20,20,21,21,22,22,23,23,24,24,25,25,26,26,27,27,28,28,29,29,30,30,31,31,32,32,33,33,34,34,35,35,36,36,37,37,39,39,40,40,41,41,43,43,45,45,47,47,48,48,49,49,50,50,52,52,53,53,54,54,55,55,56,56,57,57,58,58,59,59,61,61],"right_children":[2,4,6,8,10,12,14,16,18,20,22,24,26,28,30,32,34,36,38,40,42,44,46,48,50,52,54,56,58,60,62,64,66,68,70,72,74,76,-1,78,80,82,-1,84,-1,86,-1,88,90,92,94,-1,96,98,100,102,104,106,108,110,-1,112,-1,-1,-1,-1,-1,-1,-1,-1,-1,-1,-1,-1,-1,-1,-1,-1,-1,-1,-1,-1,-1,-1,-1,-1,-1,-1,-1,-1,-1,-1,-1,-1,-1,-1,-1,-1,-1,-1,-1,-1,-1,-1,-1,-1,-1,-1,-1,-1,-1,-1,-1],"split_conditions":[-1.3139519E-1,1.3865614E-1,3.014542E-1,-9.534961E-2,-4.1970634E-1,2.5837523E-1,-4.4518556E-2,-1.9719496E-2,-5.692348E-2,2.6418656E-2,-4.1581327E-1,-3.182891E-2,3.2049698E-1,4.575622E-1,1.8963866E-1,-1.5172961E-1,-8.6153924E-2,-2.99198E-1,-4.613173E-2,2.4109247E-1,-1.5386787E-1,-1.0656595E-1,7.4693225E-3,9.609616E-2,6.0372353E-3,-5.905831E-2,2.4368832E-1,8.069581E-1,6.22074E-2,1.3585402E-1,2.9722905E-1,-1.3122647E-1,-4.009253E-1,7.504786E-1,7.5267315E-2,-2.2220895E-1,1.7121911E-2,1.8143925E-1,-5.239466E-2,8.043536E-1,1.4772385E-1,-1.283043E-1,7.491081E-2,8.002876E-1,-8.118529E-2,-3.7036464E-1,8.049868E-2,-6.99234E-3,8.997893E-2,-1.6880703E-1,4.2225906E-1,6.239141E-2,1.2279159E-1,2.3600149E-1,4.5984307E-1,8.019208E-1,6.0937035E-1,9.1462076E-2,3.8652766E-1,1.1593264E0,-7.457656E-2,4.29304E-1,-7.48915E-2,2.3452617E-2,-1.3955416E-2,7.0095055E-2,-3.4197964E-2,5.0332885E-2,7.6562576E-2,4.6881657E-2,-6.5120965E-2,4.0020622E-2,-8.929381E-2,-7.627228E-2,-5.4117497E-2,-1.1195655E-2,9.020679E-2,3.9340984E-2,7.948693E-2,7.619387E-3,-8.774297E-2,-8.795135E-2,6.540994E-2,6.820298E-2,-1.3916198E-3,-9.364204E-2,-2.9947434E-2,2.662146E-3,-4.2442486E-2,-6.17971E-2,7.333317E-2,-2.8117059E-2,9.3137726E-2,-7.613232E-2,-1.9037899E-2,-7.188859E-2,-5.356313E-2,5.5135634E-2,-5.920872E-2,-7.353267E-2,5.240655E-3,-6.585157E-2,1.4455514E-2,-8.74732E-3,-6.965018E-2,-7.260298E-2,2.7352354E-2,5.695612E-3,-7.238708E-2,-7.103475E-2,3.0913496E-2,-7.033936E-2,2.9851023E-2],"split_indices":[60,121,116,40,38,6,86,67,52,91,93,98,36,49,4,19,12,90,89,44,16,48,31,76,87,113,9,42,88,11,113,57,96,18,53,72,6,25,0,18,58,27,0,127,0,38,0,60,19,52,93,0,87,60,93,100,40,50,87,116,0,36,0,0,0,0,0,0,0,0,0,0,0,0,0,0,0,0,0,0,0,0,0,0,0,0,0,0,0,0,0,0,0,0,0,0,0,0,0,0,0,0,0,0,0,0,0,0,0,0,0,0,0],"split_type":[0,0,0,0,0,0,0,0,0,0,0,0,0,0,0,0,0,0,0,0,0,0,0,0,0,0,0,0,0,0,0,0,0,0,0,0,0,0,0,0,0,0,0,0,0,0,0,0,0,0,0,0,0,0,0,0,0,0,0,0,0,0,0,0,0,0,0,0,0,0,0,0,0,0,0,0,0,0,0,0,0,0,0,0,0,0,0,0,0,0,0,0,0,0,0,0,0,0,0,0,0,0,0,0,0,0,0,0,0,0,0,0,0],"sum_hessian":[1.3341861E5,6.650685E4,6.691176E4,8.8182074E2,6.562503E4,8.147501E2,6.609701E4,8.238051E2,5.801559E1,6.559366E4,3.1370394E1,6.238558E2,1.9089435E2,4.0468555E3,6.205015E4,5.845365E2,2.3926863E2,5.3834614E1,4.180976E0,3.1030651E1,6.556263E4,2.093772E1,1.0432673E1,5.62645E2,6.1210766E1,1.4491255E2,4.5981804E1,2.3220396E3,1.724816E3,2.4962952E3,5.9553855E4,5.1122122E2,7.331528E1,2.2774922E2,1.1519408E1,6.8173504E0,4.701726E1,2.720822E0,1.4601536E0,1.9054575E1,1.1976077E1,4.0915442E2,6.5153473E4,1.8976807E1,1.9609127E0,8.960264E0,1.4724095E0,5.0577432E2,5.6870686E1,8.713676E0,5.249709E1,1.2331194E0,1.4367943E2,2.3764837E1,2.2216969E1,2.1982832E3,1.2375639E2,1.9102747E1,1.7057133E3,1.4242539E3,1.0720413E3,1.383693E1,5.9540016E4,3.570584E2,1.5416281E2,6.2435757E1,1.0879519E1,1.4855835E2,7.919087E1,3.4632168E0,8.056191E0,4.3255844E0,2.4917655E0,3.643951E1,1.0577754E1,1.2306786E0,1.4901437E0,7.1110635E0,1.1943511E1,1.2127855E0,1.0763291E1,4.23744E0,4.0491696E2,1.1795719E1,7.181088E0,6.727333E0,2.2329316E0,2.4400182E2,2.617725E2,9.033829E0,4.7836857E1,7.2331696E0,1.4805071E0,4.689949E1,5.597599E0,1.2300812E2,2.0671307E1,1.1737537E1,1.20273E1,2.1073704E1,1.1432645E0,2.189743E3,8.540228E0,6.720801E1,5.6548386E1,1.5410445E1,3.6923013E0,1.1391449E0,1.7045741E3,1.4181278E3,6.1261883E0,1.249174E1,1.3451896E0],"tree_param":{"num_deleted":"0","num_feature":"128","num_nodes":"113","size_leaf_vector":"1"}},{"base_weights":[3.3363712E-4,1.4460027E0,-1.439365E0,4.582957E-1,1.4595367E0,-5.460573E-1,-1.450308E0,5.679617E-1,-1.0684432E0,1.0121558E-1,1.4602207E0,-6.2371563E-2,-7.888377E-1,-1.3079809E0,-1.459588E0,3.8596964E-1,1.0682573E0,-1.4281701E0,-5.304937E-1,1.113035E0,-1.3366078E0,1.4608538E0,8.041364E-2,2.0205562E-1,-1.1864066E0,-5.9738016E-1,-1.1906972E0,-1.2157874E0,-1.3814552E0,-1.4105227E0,-1.4615953E0,7.7168053E-1,2.4034287E-1,1.2387152E0,1.2706544E-1,-9.789121E-1,-1.462586E0,5.1154065E-1,-7.684628E-2,-2.915584E-1,1.3243321E0,7.564094E-2,-1.6399834E0,1.2479653E0,7.31076E-2,-1.432987E0,7.4471855E-1,-2.1532166E-1,1.1223515E0,-1.2960255E0,8.6675845E-2,-1.253366E-1,-1.1109431E0,-1.2625822E0,1.1494398E0,-1.2545961E0,3.706178E-3,-9.180009E-1,-1.3944727E0,-1.3594644E0,-1.4279923E0,-1.4435796E0,-1.4623232E0,4.6094827E-2,-5.9055693E-2,1.7454237E-2,-2.4653813E-2,5.469354E-2,7.362491E-2,-6.371734E-2,3.1540748E-2,-8.266043E-2,-7.2733783E-3,-7.425027E-2,-3.647105E-2,-8.4420696E-2,3.9841335E-2,3.919098E-2,-7.153681E-2,4.53675E-2,7.658255E-2,-8.640792E-2,-4.1158404E-2,6.47394E-2,-6.169023E-2,-8.996334E-2,-3.628638E-3,5.1785726E-2,-7.968965E-2,-5.060723E-3,-7.411218E-2,6.776881E-2,-6.802165E-2,-7.113225E-2,-3.196918E-2,-2.512815E-2,2.7305543E-2,-6.0561627E-2,-2.185961E-2,-6.622269E-2,-2.9371444E-3,7.999767E-2,-7.6893144E-3,-6.607042E-2,-5.497107E-2,1.9561758E-2,-7.662729E-2,6.5426536E-2,-4.9195006E-2,1.4448019E-2,-6.983315E-2,-6.8574876E-2,-4.3672908E-2,-3.881375E-2,-7.1503974E-2,-6.0829896E-2,-7.2357796E-2,-4.4148605E-2,-7.311701E-2],"categories":[],"categories_nodes":[],"categories_segments":[],"categories_sizes":[],"default_left":[0,0,0,0,0,0,0,0,0,0,0,0,0,0,0,0,0,0,0,0,0,0,0,0,0,0,0,0,0,0,0,0,0,0,0,0,0,0,0,0,0,0,0,0,0,0,0,0,0,0,0,0,0,0,0,0,0,0,0,0,0,0,0,0,0,0,0,0,0,0,0,0,0,0,0,0,0,0,0,0,0,0,0,0,0,0,0,0,0,0,0,0,0,0,0,0,0,0,0,0,0,0,0,0,0,0,0,0,0,0,0,0,0,0,0,0,0,0,0],"id":9,"left_children":[1,3,5,7,9,11,13,15,17,19,21,23,25,27,29,31,33,35,37,39,41,43,45,47,49,51,53,55,57,59,61,63,65,67,69,71,73,75,-1,77,79,-1,81,83,-1,85,87,89,91,93,-1,95,97,99,101,103,105,107,109,111,113,115,117,-1,-1,-1,-1,-1,-1,-1,-1,-1,-1,-1,-1,-1,-1,-1,-1,-1,-1,-1,-1,-1,-1,-1,-1,-1,-1,-1,-1,-1,-1,-1,-1,-1,-1,-1,-1,-1,-1,-1,-1,-1,-1,-1,-1,-1,-1,-1,-1,-1,-1,-1,-1,-1,-1,-1,-1],"loss_changes":[2.707783E5,8.674844E2,6.369219E2,1.4696765E2,5.9328125E1,9.257332E1,8.4578125E1,7.438498E1,1.1106064E1,4.7282986E1,5.5734375E1,7.857742E1,4.016156E1,2.6284668E1,5.4609375E0,3.3630417E1,3.4864044E1,1.5481567E-1,2.517407E1,5.8167133E0,1.1838499E1,1.7234375E1,2.9725836E1,8.219991E1,1.6298912E1,8.619444E1,2.8622879E1,8.296362E1,1.2871582E1,1.6503906E0,2.65625E-1,4.8322166E1,3.4816105E1,5.836334E0,2.378501E1,1.4843531E0,1.9883728E-1,7.4103556E0,0E0,3.2643933E0,1.0608616E0,0E0,4.801445E-1,4.5357056E1,0E0,4.2825184E0,1.4150261E1,2.108234E1,3.8813377E1,3.7456512E0,0E0,4.7077614E1,1.1299179E1,1.208905E1,3.1366138E0,1.720044E1,3.2096756E1,8.961559E0,8.014648E0,3.22583E0,2.0761719E0,1.3989258E0,1.953125E-1,0E0,0E0,0E0,0E0,0E0,0E0,0E0,0E0,0E0,0E0,0E0,0E0,0E0,0E0,0E0,0E0,0E0,0E0,0E0,0E0,0E0,0E0,0E0,0E0,0E0,0E0,0E0,0E0,0E0,0E0,0E0,0E0,0E0,0E0,0E0,0E0,0E0,0E0,0E0,0E0,0E0,0E0,0E0,0E0,0E0,0E0,0E0,0E0,0E0,0E0,0E0,0E0,0E0,0E0,0E0,0E0],"parents":[2147483647,0,0,1,1,2,2,3,3,4,4,5,5,6,6,7,7,8,8,9,9,10,10,11,11,12,12,13,13,14,14,15,15,16,16,17,17,18,18,19,19,20,20,21,21,22,22,23,23,24,24,25,25,26,26,27,27,28,28,29,29,30,30,31,31,32,32,33,33,34,34,35,35,36,36,37,37,39,39,40,40,42,42,43,43,45,45,46,46,47,47,48,48,49,49,51,51,52,52,53,53,54,54,55,55,56,56,57,57,58,58,59,59,60,60,61,61,62,62],"right_children":[2,4,6,8,10,12,14,16,18,20,22,24,26,28,30,32,34,36,38,40,42,44,46,48,50,52,54,56,58,60,62,64,66,68,70,72,74,76,-1,78,80,-1,82,84,-1,86,88,90,92,94,-1,96,98,100,102,104,106,108,110,112,114,116,118,-1,-1,-1,-1,-1,-1,-1,-1,-1,-1,-1,-1,-1,-1,-1,-1,-1,-1,-1,-1,-1,-1,-1,-1,-1,-1,-1,-1,-1,-1,-1,-1,-1,-1,-1,-1,-1,-1,-1,-1,-1,-1,-1,-1,-1,-1,-1,-1,-1,-1,-1,-1,-1,-1,-1,-1],"split_conditions":[-1.3139519E-1,1.3865614E-1,3.014542E-1,-9.534961E-2,2.6418656E-2,-6.99234E-3,-4.4518556E-2,5.412072E-3,-1.0302338E-1,-7.8347504E-2,-4.1970634E-1,-2.9531536E-1,-1.14681944E-1,3.1434458E-1,-3.3489645E-2,-2.7983928E-1,-1.02657646E-1,1.3869295E-1,-1.9046889E-1,5.599276E-1,2.093421E-2,-1.5386787E-1,3.4341502E-1,-7.8997314E-2,4.2225906E-1,2.5837523E-1,2.048811E-1,3.9452633E-1,2.241295E-1,6.713979E-1,4.0110776E-1,-1.1976662E-1,-4.3082127E-1,7.504786E-1,-2.1062063E-1,-3.5298288E-1,6.046119E-1,-4.985571E-3,-7.684628E-2,3.3607137E-1,8.043536E-1,7.564094E-2,-4.8023082E-2,-4.5842403E-1,7.31076E-2,-3.7036464E-1,-1.0656595E-1,-6.1392963E-2,-2.1945417E-2,-1.0302338E-1,8.6675845E-2,9.609616E-2,3.5308915E-1,2.5049275E-1,-2.1062398E-1,1.9368005E-1,3.898176E-1,9.9152E-2,3.0865943E-1,6.055987E-1,4.2458907E-1,3.4968644E-1,1.9666618E-1,4.6094827E-2,-5.9055693E-2,1.7454237E-2,-2.4653813E-2,5.469354E-2,7.362491E-2,-6.371734E-2,3.1540748E-2,-8.266043E-2,-7.2733783E-3,-7.425027E-2,-3.647105E-2,-8.4420696E-2,3.9841335E-2,3.919098E-2,-7.153681E-2,4.53675E-2,7.658255E-2,-8.640792E-2,-4.1158404E-2,6.47394E-2,-6.169023E-2,-8.996334E-2,-3.628638E-3,5.1785726E-2,-7.968965E-2,-5.060723E-3,-7.411218E-2,6.776881E-2,-6.802165E-2,-7.113225E-2,-3.196918E-2,-2.512815E-2,2.7305543E-2,-6.0561627E-2,-2.185961E-2,-6.622269E-2,-2.9371444E-3,7.999767E-2,-7.6893144E-3,-6.607042E-2,-5.497107E-2,1.9561758E-2,-7.662729E-2,6.5426536E-2,-4.9195006E-2,1.4448019E-2,-6.983315E-2,-6.8574876E-2,-4.3672908E-2,-3.881375E-2,-7.1503974E-2,-6.0829896E-2,-7.2357796E-2,-4.4148605E-2,-7.311701E-2],"split_indices":[60,121,116,40,91,60,86,67,39,83,38,96,127,3,66,18,35,100,18,18,58,16,78,76,93,6,18,72,82,9,66,15,126,18,48,3,41,36,0,127,18,0,22,93,0,38,48,45,15,39,0,76,36,36,113,56,113,54,47,56,72,76,113,0,0,0,0,0,0,0,0,0,0,0,0,0,0,0,0,0,0,0,0,0,0,0,0,0,0,0,0,0,0,0,0,0,0,0,0,0,0,0,0,0,0,0,0,0,0,0,0,0,0,0,0,0,0,0,0],"split_type":[0,0,0,0,0,0,0,0,0,0,0,0,0,0,0,0,0,0,0,0,0,0,0,0,0,0,0,0,0,0,0,0,0,0,0,0,0,0,0,0,0,0,0,0,0,0,0,0,0,0,0,0,0,0,0,0,0,0,0,0,0,0,0,0,0,0,0,0,0,0,0,0,0,0,0,0,0,0,0,0,0,0,0,0,0,0,0,0,0,0,0,0,0,0,0,0,0,0,0,0,0,0,0,0,0,0,0,0,0,0,0,0,0,0,0,0,0,0,0],"sum_hessian":[1.3009861E5,6.4914742E4,6.5183867E4,8.77615E2,6.4037125E4,7.889985E2,6.439487E4,8.189201E2,5.8694916E1,3.2314075E1,6.4004812E4,2.6385794E2,5.251405E2,3.9432544E3,6.0451617E4,6.007594E2,2.1816066E2,3.4963467E1,2.373145E1,1.90209E1,1.3293176E1,6.3975383E4,2.9429682E1,2.1360162E2,5.025633E1,3.5601984E2,1.6912068E2,1.7502289E3,2.1930254E3,2.380615E3,5.8071E4,1.6434753E2,4.3641187E2,1.8459167E2,3.3568977E1,2.9041E0,3.205937E1,1.1634839E1,1.2096609E1,2.420359E0,1.6600542E1,1.2090453E0,1.208413E1,3.8879922E2,6.3586582E4,8.896251E0,2.0533432E1,1.4693214E2,6.666947E1,4.8524498E1,1.7318305E0,1.8567499E2,1.7034485E2,1.6416653E2,4.954142E0,1.6963248E3,5.390411E1,6.032023E1,2.1327053E3,6.103546E2,1.7702603E3,2.2678616E3,5.580314E4,1.5270493E2,1.1642613E1,3.8022568E2,5.6186184E1,1.1459063E2,7.000105E1,8.783136E0,2.4785841E1,1.484625E0,1.419475E0,3.0876268E1,1.1830978E0,1.2388918E0,1.0395947E1,1.2159345E0,1.2044244E0,5.851462E0,1.0749081E1,1.069555E1,1.3885801E0,3.8168622E2,7.112999E0,6.925779E0,1.9704713E0,1.8348663E1,2.1847687E0,1.349634E2,1.1968757E1,6.1027367E1,5.64211E0,4.0454723E1,8.0697775E0,1.18995895E2,6.667909E1,1.4807529E2,2.2269566E1,1.5605307E2,8.113471E0,3.721587E0,1.2325553E0,1.1847997E3,5.1152512E2,4.3157097E1,1.0747016E1,1.6361659E0,5.8684063E1,2.6948082E0,2.1300105E3,5.9522925E2,1.51254015E1,5.9231424E0,1.7643372E3,3.6142586E1,2.231719E3,1.9759752E0,5.5801164E4],"tree_param":{"num_deleted":"0","num_feature":"128","num_nodes":"119","size_leaf_vector":"1"}},{"base_weights":[1.0221365E-4,1.4128851E0,-1.4063426E0,5.613868E-1,1.4295578E0,-1.4170705E0,-4.6875447E-1,9.0358347E-1,1.8095097E-1,9.719674E-1,1.429609E0,-1.2601663E0,-1.4268336E0,-1.2960927E-1,-8.65633E-1,7.332084E-1,1.3364156E0,7.701508E-2,8.380624E-1,7.087336E-2,-6.5918006E-2,1.2155832E0,7.148273E-2,-5.636042E-1,-1.273063E0,-1.3688549E0,-1.4287819E0,-8.0660164E-1,3.832734E-1,1.9584803E-1,-9.1360015E-1,-4.7792047E-1,7.9864997E-1,1.359016E0,-2.1458913E-2,1.6375509E-1,-9.451542E-1,9.873736E-1,-4.4186583E-1,-7.858594E-3,7.083442E-2,-1.4483362E0,4.397554E-1,-1.2933776E0,-1.0062006E0,2.56033E-2,-1.3707283E0,-1.4094313E0,-7.149028E-2,-9.057544E-1,1.5105867E0,9.751777E-1,-3.6963472E-1,1.4812529E0,-1.0224309E0,-1.1896224E0,-6.508856E-1,-1.5509891E-2,-1.08097374E-1,4.6331447E-2,1.8470874E-2,6.8919934E-2,2.9781852E-2,-6.50692E-4,2.3303417E-2,-5.5597533E-2,3.5418488E-2,6.4949445E-2,6.2668435E-3,5.6931872E-2,-1.2113895E-1,-7.68793E-2,-2.9201154E-2,6.446349E-2,-6.608276E-2,-6.27096E-2,-6.866284E-2,-1.590948E-2,-6.809183E-2,-7.152992E-2,-6.760556E-2,-7.077997E-2,-6.489283E-2,2.277862E-3,-5.776161E-2,1.07463874E-1,-6.945671E-2,6.0574085E-2,-3.578245E-2,-4.9050067E-2,1.7702227E-2,1.2389814E-1,2.4699418E-2,-6.942444E-2,1.2703509E-3,6.312117E-2,-6.2035453E-2,4.27607E-2,-4.156429E-2],"categories":[],"categories_nodes":[],"categories_segments":[],"categories_sizes":[],"default_left":[0,0,0,0,0,0,0,0,0,0,0,0,0,0,0,0,0,0,0,0,0,0,0,0,0,0,0,0,0,0,0,0,0,0,0,0,0,0,0,0,0,0,0,0,0,0,0,0,0,0,0,0,0,0,0,0,0,0,0,0,0,0,0,0,0,0,0,0,0,0,0,0,0,0,0,0,0,0,0,0,0,0,0,0,0,0,0,0,0,0,0,0,0,0,0,0,0,0,0],"id":10,"left_children":[1,3,5,7,9,11,13,15,17,19,21,23,25,27,29,31,33,35,37,-1,-1,39,-1,41,43,45,47,49,51,53,55,57,59,61,-1,63,65,67,69,-1,-1,71,73,75,77,-1,79,81,-1,83,85,87,89,91,93,95,97,-1,-1,-1,-1,-1,-1,-1,-1,-1,-1,-1,-1,-1,-1,-1,-1,-1,-1,-1,-1,-1,-1,-1,-1,-1,-1,-1,-1,-1,-1,-1,-1,-1,-1,-1,-1,-1,-1,-1,-1,-1,-1],"loss_changes":[2.512509E5,8.952656E2,6.3709375E2,1.5762231E2,1.078125E0,9.552344E1,9.640848E1,4.672583E1,3.910928E1,7.7956476E0,1.796875E-1,3.2725586E1,6.1875E0,1.3441866E2,1.6905533E1,3.637149E1,7.3276978E0,4.3905975E1,1.5053959E1,0E0,0E0,4.1047783E0,0E0,5.969256E1,1.9179688E1,6.9257812E0,6.328125E-1,3.8421143E1,9.819566E1,2.2545893E1,2.2660095E1,6.3129973E0,2.3712585E1,2.349121E0,0E0,2.4483437E1,1.0796791E1,1.8694313E1,2.5997936E1,0E0,0E0,2.4528656E0,4.7221653E1,1.0047363E1,6.2370483E1,0E0,1.6679688E0,1.5263672E0,0E0,3.812465E1,1.30506935E1,4.9417404E1,4.2962223E1,6.4932127E0,2.9576044E0,1.9425095E1,4.4181313E1,0E0,0E0,0E0,0E0,0E0,0E0,0E0,0E0,0E0,0E0,0E0,0E0,0E0,0E0,0E0,0E0,0E0,0E0,0E0,0E0,0E0,0E0,0E0,0E0,0E0,0E0,0E0,0E0,0E0,0E0,0E0,0E0,0E0,0E0,0E0,0E0,0E0,0E0,0E0,0E0,0E0,0E0],"parents":[2147483647,0,0,1,1,2,2,3,3,4,4,5,5,6,6,7,7,8,8,9,9,10,10,11,11,12,12,13,13,14,14,15,15,16,16,17,17,18,18,21,21,23,23,24,24,25,25,26,26,27,27,28,28,29,29,30,30,31,31,32,32,33,33,35,35,36,36,37,37,38,38,41,41,42,42,43,43,44,44,46,46,47,47,49,49,50,50,51,51,52,52,53,53,54,54,55,55,56,56],"right_children":[2,4,6,8,10,12,14,16,18,20,22,24,26,28,30,32,34,36,38,-1,-1,40,-1,42,44,46,48,50,52,54,56,58,60,62,-1,64,66,68,70,-1,-1,72,74,76,78,-1,80,82,-1,84,86,88,90,92,94,96,98,-1,-1,-1,-1,-1,-1,-1,-1,-1,-1,-1,-1,-1,-1,-1,-1,-1,-1,-1,-1,-1,-1,-1,-1,-1,-1,-1,-1,-1,-1,-1,-1,-1,-1,-1,-1,-1,-1,-1,-1,-1,-1],"split_conditions":[-2.1062398E-1,-3.294603E-2,-3.4242722E-1,-5.223443E-1,2.6418656E-2,7.594325E-2,1.0696328E-1,-8.2702674E-2,-1.9719496E-2,-5.7688244E-2,2.9251963E-2,2.6254177E-1,4.2415306E-1,-1.3379735E-1,-2.084806E-1,3.446286E-1,-1.2940614E-1,-2.679903E-1,7.1445954E-1,7.087336E-2,-6.5918006E-2,5.700908E-1,7.148273E-2,2.319771E-1,5.097556E-2,1.956085E-1,4.0110776E-1,2.8588864E-1,-8.7594956E-2,-2.5786787E-2,5.4328084E-2,2.0997271E-2,-4.114277E-1,-2.0091394E-1,-2.1458913E-2,5.6705326E-1,7.365191E-2,-1.2677741E-1,4.5319423E-1,-7.858594E-3,7.083442E-2,1.7385268E-1,2.5815815E-1,7.723113E-1,3.898176E-1,2.56033E-2,4.701718E-1,1.0488935E0,-7.149028E-2,-1.4356667E-1,2.5225645E-1,1.6768783E-2,1.956085E-1,-1.14681944E-1,1.17450625E-1,-2.3416942E-1,1.5175086E-1,-1.5509891E-2,-1.08097374E-1,4.6331447E-2,1.8470874E-2,6.8919934E-2,2.9781852E-2,-6.50692E-4,2.3303417E-2,-5.5597533E-2,3.5418488E-2,6.4949445E-2,6.2668435E-3,5.6931872E-2,-1.2113895E-1,-7.68793E-2,-2.9201154E-2,6.446349E-2,-6.608276E-2,-6.27096E-2,-6.866284E-2,-1.590948E-2,-6.809183E-2,-7.152992E-2,-6.760556E-2,-7.077997E-2,-6.489283E-2,2.277862E-3,-5.776161E-2,1.07463874E-1,-6.945671E-2,6.0574085E-2,-3.578245E-2,-4.9050067E-2,1.7702227E-2,1.2389814E-1,2.4699418E-2,-6.942444E-2,1.2703509E-3,6.312117E-2,-6.2035453E-2,4.27607E-2,-4.156429E-2],"split_indices":[113,28,118,113,91,32,68,117,67,17,118,114,32,76,25,118,48,72,118,0,0,63,0,82,32,114,66,1,87,38,76,57,38,100,0,70,36,45,18,0,0,87,82,114,113,0,113,1,0,114,82,70,114,127,100,40,38,0,0,0,0,0,0,0,0,0,0,0,0,0,0,0,0,0,0,0,0,0,0,0,0,0,0,0,0,0,0,0,0,0,0,0,0,0,0,0,0,0,0],"split_type":[0,0,0,0,0,0,0,0,0,0,0,0,0,0,0,0,0,0,0,0,0,0,0,0,0,0,0,0,0,0,0,0,0,0,0,0,0,0,0,0,0,0,0,0,0,0,0,0,0,0,0,0,0,0,0,0,0,0,0,0,0,0,0,0,0,0,0,0,0,0,0,0,0,0,0,0,0,0,0,0,0,0,0,0,0,0,0,0,0,0,0,0,0,0,0,0,0,0,0],"sum_hessian":[1.2644708E5,6.3081438E4,6.336564E4,1.2116254E3,6.1869812E4,6.2648652E4,7.16985E2,6.3765936E2,5.7396594E2,7.3473825E0,6.1862465E4,3.6712253E3,5.897743E4,3.8681985E2,3.3016513E2,4.579125E2,1.7974687E2,4.9580753E2,7.815841E1,6.2193975E0,1.1279846E0,1.4231825E1,6.1848234E4,6.6958374E1,3.6042668E3,1.9212461E3,5.7056184E4,1.6679384E2,2.2002602E2,1.4171279E1,3.1599387E2,2.3363577E1,4.3454892E2,1.7755379E2,2.1930842E0,4.5719257E2,3.861498E1,7.008372E1,8.074694E0,1.7577714E0,1.2474053E1,3.5612057E1,3.134632E1,3.3485981E3,2.5566864E2,1.8313683E0,1.9194147E3,2.878842E3,5.417734E4,1.6004938E2,6.7444634E0,1.2324183E2,9.678419E1,6.925105E0,7.2461743E0,1.537365E2,1.6225735E2,2.1409113E1,1.9544642E0,3.3447406E2,1.0007486E2,1.7295088E2,4.6029067E0,2.88352E2,1.6884056E2,3.5161366E1,3.453613E0,5.1353416E1,1.8730299E1,4.486837E0,3.5878568E0,3.2103436E1,3.5086231E0,2.1203579E1,1.014274E1,2.248495E3,1.1001031E3,8.7282715E1,1.6838593E2,4.5220966E2,1.4672051E3,2.7260757E3,1.5276633E2,3.3185795E1,1.2686358E2,5.5765433E0,1.1679199E0,1.08206726E2,1.5035099E1,5.251878E1,4.4265408E1,3.320527E0,3.604578E0,5.4167714E0,1.8294028E0,3.0492842E0,1.5068721E2,1.7256914E1,1.4500044E2],"tree_param":{"num_deleted":"0","num_feature":"128","num_nodes":"99","size_leaf_vector":"1"}},{"base_weights":[1.4610648E-3,1.3835783E0,-1.375639E0,5.6236446E-1,1.3999367E0,-4.851901E-1,-1.3871084E0,6.405046E-1,-9.942832E-1,1.1602806E0,1.4000041E0,-1.89794E-2,-7.2462136E-1,-1.231371E0,-1.3974456E0,4.7355968E-1,1.1273876E0,-1.1418735E0,4.8142645E-1,4.1098928E-1,7.005305E-2,1.1307849E0,7.000258E-2,2.5536132E-1,-1.0867823E0,-5.580873E-1,-1.0794152E0,-1.1717433E0,-1.3334229E0,-1.342336E0,-1.3992841E0,-4.4076648E-1,5.644842E-1,1.1682127E0,-7.216715E-1,-2.1133469E-1,-1.3303463E0,1.2259722E0,-4.914013E-2,6.760234E-2,-8.128424E-2,-5.2672602E-2,6.912525E-2,-1.6382338E-1,1.1945773E0,-1.1996324E0,7.2641295E-1,-2.9011127E-1,-1.1362214E0,-1.1383907E0,9.005013E-2,-1.2094623E0,-3.8900527E-1,-1.3422824E0,-1.0560796E0,-1.3929964E0,-1.31943E0,-1.38232E0,-7.000559E-2,-4.0120456E-2,2.8084045E-2,2.3982452E-2,7.123531E-2,5.952787E-2,-3.1756308E-2,-1.3748E-1,6.9250226E-2,-7.5748354E-2,3.0239765E-2,-3.5235178E-2,-6.824508E-2,8.28025E-2,1.6129928E-2,-2.3175885E-3,-7.779264E-2,7.329651E-2,-4.6471767E-3,4.9737556E-4,-6.635886E-2,-3.284664E-2,7.986531E-2,5.6790365E-3,-4.952371E-2,-6.2188543E-2,-8.124709E-3,-6.0812335E-2,-2.7312187E-3,-6.057478E-2,7.01224E-2,-4.844001E-2,8.218664E-3,-2.524645E-2,-6.721374E-2,9.5498964E-2,-6.1110254E-2,-6.973536E-2,-1.6340202E-2,-6.6625313E-3,-6.625595E-2,-6.9469094E-2,-6.294156E-2],"categories":[],"categories_nodes":[],"categories_segments":[],"categories_sizes":[],"default_left":[0,0,0,0,0,0,0,0,0,0,0,0,0,0,0,0,0,0,0,0,0,0,0,0,0,0,0,0,0,0,0,0,0,0,0,0,0,0,0,0,0,0,0,0,0,0,0,0,0,0,0,0,0,0,0,0,0,0,0,0,0,0,0,0,0,0,0,0,0,0,0,0,0,0,0,0,0,0,0,0,0,0,0,0,0,0,0,0,0,0,0,0,0,0,0,0,0,0,0,0,0],"id":11,"left_children":[1,3,5,7,9,11,13,15,17,19,21,23,25,27,29,31,33,35,37,39,-1,41,-1,43,45,47,49,51,53,55,57,59,61,63,65,67,69,71,-1,-1,-1,-1,-1,73,75,77,79,81,83,85,-1,87,89,91,93,95,97,99,-1,-1,-1,-1,-1,-1,-1,-1,-1,-1,-1,-1,-1,-1,-1,-1,-1,-1,-1,-1,-1,-1,-1,-1,-1,-1,-1,-1,-1,-1,-1,-1,-1,-1,-1,-1,-1,-1,-1,-1,-1,-1,-1],"loss_changes":[2.337838E5,8.2325E2,6.28125E2,1.4569879E2,5.625E-1,8.729213E1,9.735156E1,9.248657E1,1.2583698E1,2.9920921E0,3.59375E-1,7.798011E1,3.032129E1,2.2609863E1,5.3046875E0,7.066766E1,2.2094055E1,8.956734E0,5.82602E0,9.0044565E0,0E0,6.4823856E0,0E0,8.33873E1,1.1271492E1,5.43935E1,2.8141296E1,7.032202E1,3.0427246E0,1.684082E0,3.046875E-1,2.7911917E1,5.6144394E1,1.1606445E1,2.740858E1,9.742015E0,6.3134E-1,1.1257753E0,0E0,0E0,0E0,0E0,0E0,2.374651E1,2.298198E1,8.051804E0,4.0534263E0,6.821546E1,1.1505722E1,1.35043335E1,0E0,1.2253662E1,3.541914E1,1.9992676E0,2.182409E1,8.234863E-1,8.424072E0,1.8076172E0,0E0,0E0,0E0,0E0,0E0,0E0,0E0,0E0,0E0,0E0,0E0,0E0,0E0,0E0,0E0,0E0,0E0,0E0,0E0,0E0,0E0,0E0,0E0,0E0,0E0,0E0,0E0,0E0,0E0,0E0,0E0,0E0,0E0,0E0,0E0,0E0,0E0,0E0,0E0,0E0,0E0,0E0,0E0],"parents":[2147483647,0,0,1,1,2,2,3,3,4,4,5,5,6,6,7,7,8,8,9,9,10,10,11,11,12,12,13,13,14,14,15,15,16,16,17,17,18,18,19,19,21,21,23,23,24,24,25,25,26,26,27,27,28,28,29,29,30,30,31,31,32,32,33,33,34,34,35,35,36,36,37,37,43,43,44,44,45,45,46,46,47,47,48,48,49,49,51,51,52,52,53,53,54,54,55,55,56,56,57,57],"right_children":[2,4,6,8,10,12,14,16,18,20,22,24,26,28,30,32,34,36,38,40,-1,42,-1,44,46,48,50,52,54,56,58,60,62,64,66,68,70,72,-1,-1,-1,-1,-1,74,76,78,80,82,84,86,-1,88,90,92,94,96,98,100,-1,-1,-1,-1,-1,-1,-1,-1,-1,-1,-1,-1,-1,-1,-1,-1,-1,-1,-1,-1,-1,-1,-1,-1,-1,-1,-1,-1,-1,-1,-1,-1,-1,-1,-1,-1,-1,-1,-1,-1,-1,-1,-1],"split_conditions":[-1.3139519E-1,-3.294603E-2,3.014542E-1,-9.534961E-2,7.2394907E-3,-6.99234E-3,1.257616E-1,4.221046E-1,-3.7507325E-2,7.5766355E-2,2.9251963E-2,1.0608095E-1,-1.14681944E-1,7.723113E-1,4.6950606E-1,-2.0475551E-2,8.816199E-1,-1.0342659E-1,-9.8774284E-2,5.775051E-2,7.005305E-2,5.700908E-1,7.000258E-2,-5.9623837E-2,3.7577495E-1,1.6954988E-1,2.4915901E-1,4.9735916E-1,8.7287456E-1,5.9013677E-1,4.0110776E-1,1.9474748E-1,1.349992E0,-9.419541E-2,3.1231305E-1,2.940178E-2,-5.9623837E-2,1.3851666E-1,-4.914013E-2,6.760234E-2,-8.128424E-2,-5.2672602E-2,6.912525E-2,-4.795122E-2,-2.6881099E-3,-8.7594956E-2,-1.0302338E-1,1.9436318E-1,2.3684582E-1,2.3686063E-1,9.005013E-2,7.6840496E-1,7.8834677E-1,9.460819E-2,5.6871915E-1,1.7297835E0,4.9165985E-1,1.0488935E0,-7.000559E-2,-4.0120456E-2,2.8084045E-2,2.3982452E-2,7.123531E-2,5.952787E-2,-3.1756308E-2,-1.3748E-1,6.9250226E-2,-7.5748354E-2,3.0239765E-2,-3.5235178E-2,-6.824508E-2,8.28025E-2,1.6129928E-2,-2.3175885E-3,-7.779264E-2,7.329651E-2,-4.6471767E-3,4.9737556E-4,-6.635886E-2,-3.284664E-2,7.986531E-2,5.6790365E-3,-4.952371E-2,-6.2188543E-2,-8.124709E-3,-6.0812335E-2,-2.7312187E-3,-6.057478E-2,7.01224E-2,-4.844001E-2,8.218664E-3,-2.524645E-2,-6.721374E-2,9.5498964E-2,-6.1110254E-2,-6.973536E-2,-1.6340202E-2,-6.6625313E-3,-6.625595E-2,-6.9469094E-2,-6.294156E-2],"split_indices":[60,28,116,40,28,60,32,78,67,22,118,38,127,114,32,39,67,98,96,8,0,63,0,19,93,42,18,50,19,50,66,118,39,48,5,36,19,36,0,0,0,0,0,45,45,87,39,60,82,36,0,82,93,119,113,3,1,1,0,0,0,0,0,0,0,0,0,0,0,0,0,0,0,0,0,0,0,0,0,0,0,0,0,0,0,0,0,0,0,0,0,0,0,0,0,0,0,0,0,0,0],"split_type":[0,0,0,0,0,0,0,0,0,0,0,0,0,0,0,0,0,0,0,0,0,0,0,0,0,0,0,0,0,0,0,0,0,0,0,0,0,0,0,0,0,0,0,0,0,0,0,0,0,0,0,0,0,0,0,0,0,0,0,0,0,0,0,0,0,0,0,0,0,0,0,0,0,0,0,0,0,0,0,0,0,0,0,0,0,0,0,0,0,0,0,0,0,0,0,0,0,0,0,0,0],"sum_hessian":[1.2282969E5,6.1303207E4,6.152648E4,1.1974865E3,6.010572E4,7.825876E2,6.0743895E4,1.1403658E3,5.712065E1,1.7808096E1,6.008791E4,2.6571802E2,5.1686957E2,3.7822544E3,5.696164E4,8.494908E2,2.908751E2,5.200942E1,5.111236E0,4.49767E0,1.3310426E1,1.1365361E1,6.0076547E4,2.1138998E2,5.4328037E1,3.521266E2,1.64743E2,2.3887583E3,1.3934961E3,1.8432062E3,5.5118434E4,7.67018E1,7.7278894E2,2.8468057E2,6.1945024E0,8.884934E0,4.312448E1,3.4443738E0,1.6668622E0,3.132838E0,1.364832E0,1.1004777E0,1.0264883E1,1.4614127E2,6.524872E1,5.1228645E1,3.0993924E0,2.4082353E2,1.11303055E2,1.615309E2,3.2120905E0,2.2787659E3,1.09992584E2,1.3496388E3,4.3857323E1,5.7069025E2,1.2725159E3,2.5772695E3,5.2541164E4,5.6454865E1,2.024693E1,7.0366547E2,6.912352E1,2.8128467E2,3.3959012E0,3.1648774E0,3.029625E0,3.434997E0,5.4499373E0,2.5206144E0,4.0603867E1,2.2020216E0,1.2423521E0,1.3492987E2,1.1211396E1,5.394359E1,1.1305133E1,4.8205695E0,4.6408077E1,1.1625369E0,1.9368556E0,1.5273022E2,8.809331E1,1.0011482E2,1.1188237E1,1.5060704E2,1.0923865E1,2.277085E3,1.6808037E0,5.3765816E1,5.6226772E1,3.3832912E0,1.3462555E3,2.2385116E0,4.1618813E1,5.696516E2,1.0386506E0,6.169435E0,1.2663464E3,2.4361216E3,1.4114804E2],"tree_param":{"num_deleted":"0","num_feature":"128","num_nodes":"101","size_leaf_vector":"1"}},{"base_weights":[-3.0684329E-4,1.3561053E0,-1.348397E0,5.4271805E-1,1.3728398E0,-4.1194576E-1,-1.3590226E0,8.341503E-1,2.2455165E-1,9.930829E-1,1.372879E0,-1.5794265E-1,-1.0731666E0,-1.188442E0,-1.3698671E0,6.828861E-1,1.3427966E0,1.08758E-1,8.37305E-1,6.7550085E-2,-3.480193E-2,1.1461052E0,6.864629E-2,-6.832796E-1,1.2595828E-1,-1.2276623E0,-5.350957E-1,3.338216E-1,-1.1950662E0,-1.311455E0,-1.3720988E0,5.867892E-1,1.3955368E0,4.6938536E-1,1.3648965E0,3.9780155E-1,-2.6907203E-1,1.004012E0,-1.0782619E0,-1.4328522E-2,6.8401866E-2,1.6745715E-1,-9.290588E-1,1.1700383E0,-1.1970152E-1,-1.2662804E0,-3.895102E-1,-1.0826657E0,1.5361392E-1,1.1439854E0,-8.585361E-1,-1.1432295E0,-1.2975987E0,-1.3661474E0,-1.2914089E0,-1.3540525E0,-6.864909E-2,3.591099E-2,-7.6763653E-3,2.7848069E-2,7.060398E-2,7.2175615E-2,-7.136725E-2,6.891647E-2,1.0807375E-2,2.2511782E-2,-5.729059E-2,-2.385021E-2,2.4885433E-2,5.31089E-2,-1.00674525E-1,-7.120128E-2,2.9847497E-2,-1.7792268E-2,9.3912445E-2,-5.2724756E-2,4.0925838E-2,-7.559778E-2,6.584247E-2,-1.7681407E-2,3.0956984E-2,-4.1703027E-2,-6.558089E-2,1.1528927E-1,-5.1811367E-2,-6.4702444E-2,-1.0248286E-2,5.7691347E-2,-3.3933952E-2,-7.211401E-2,8.664231E-2,-6.366633E-2,3.7630476E-2,-5.866586E-2,-1.533202E-2,-3.2115247E-2,-6.555588E-2,-1.805729E-2,-6.8392076E-2,-4.7252294E-2,-6.485229E-2,-4.6818677E-2,-6.783313E-2],"categories":[],"categories_nodes":[],"categories_segments":[],"categories_sizes":[],"default_left":[0,0,0,0,0,0,0,0,0,0,0,0,0,0,0,0,0,0,0,0,0,0,0,0,0,0,0,0,0,0,0,0,0,0,0,0,0,0,0,0,0,0,0,0,0,0,0,0,0,0,0,0,0,0,0,0,0,0,0,0,0,0,0,0,0,0,0,0,0,0,0,0,0,0,0,0,0,0,0,0,0,0,0,0,0,0,0,0,0,0,0,0,0,0,0,0,0,0,0,0,0,0,0],"id":12,"left_children":[1,3,5,7,9,11,13,15,17,19,21,23,25,27,29,31,33,35,37,-1,-1,39,-1,41,43,45,47,49,51,53,55,57,59,61,63,65,67,69,71,-1,-1,73,75,77,79,81,83,85,87,89,91,93,95,97,99,101,-1,-1,-1,-1,-1,-1,-1,-1,-1,-1,-1,-1,-1,-1,-1,-1,-1,-1,-1,-1,-1,-1,-1,-1,-1,-1,-1,-1,-1,-1,-1,-1,-1,-1,-1,-1,-1,-1,-1,-1,-1,-1,-1,-1,-1,-1,-1],"loss_changes":[2.1793308E5,8.083828E2,5.945547E2,1.1094925E2,4.921875E-1,1.1253652E2,1.08921875E2,4.7794464E1,4.0551132E1,4.1713853E0,2.03125E-1,7.23871E1,1.5225555E1,3.576367E1,6.7890625E0,3.2736145E1,2.512909E0,5.268067E1,2.913396E1,0E0,0E0,4.289339E0,0E0,3.5692223E1,8.085107E1,4.456955E0,1.58837595E1,1.4930828E1,1.8310547E1,1.8041992E0,3.90625E-1,4.1431427E1,5.1639557E-1,7.2165203E0,1.9605713E0,2.2108131E1,3.332764E1,1.48160095E1,4.383896E0,0E0,0E0,3.4379425E1,2.909037E1,2.3819977E1,4.4036922E1,2.3767242E0,1.1644113E1,4.164116E0,1.555421E1,1.4317192E1,4.296147E0,5.8685547E1,1.0176025E1,7.0825195E-1,2.58667E0,2.3793945E0,0E0,0E0,0E0,0E0,0E0,0E0,0E0,0E0,0E0,0E0,0E0,0E0,0E0,0E0,0E0,0E0,0E0,0E0,0E0,0E0,0E0,0E0,0E0,0E0,0E0,0E0,0E0,0E0,0E0,0E0,0E0,0E0,0E0,0E0,0E0,0E0,0E0,0E0,0E0,0E0,0E0,0E0,0E0,0E0,0E0,0E0,0E0],"parents":[2147483647,0,0,1,1,2,2,3,3,4,4,5,5,6,6,7,7,8,8,9,9,10,10,11,11,12,12,13,13,14,14,15,15,16,16,17,17,18,18,21,21,23,23,24,24,25,25,26,26,27,27,28,28,29,29,30,30,31,31,32,32,33,33,34,34,35,35,36,36,37,37,38,38,41,41,42,42,43,43,44,44,45,45,46,46,47,47,48,48,49,49,50,50,51,51,52,52,53,53,54,54,55,55],"right_children":[2,4,6,8,10,12,14,16,18,20,22,24,26,28,30,32,34,36,38,-1,-1,40,-1,42,44,46,48,50,52,54,56,58,60,62,64,66,68,70,72,-1,-1,74,76,78,80,82,84,86,88,90,92,94,96,98,100,102,-1,-1,-1,-1,-1,-1,-1,-1,-1,-1,-1,-1,-1,-1,-1,-1,-1,-1,-1,-1,-1,-1,-1,-1,-1,-1,-1,-1,-1,-1,-1,-1,-1,-1,-1,-1,-1,-1,-1,-1,-1,-1,-1,-1,-1,-1,-1],"split_conditions":[-2.1062398E-1,-3.294603E-2,8.338019E-2,-5.223443E-1,2.6418656E-2,2.5837523E-1,7.594325E-2,4.4269654E-1,-7.1081154E-2,2.6580006E-1,2.9251963E-2,-1.3167298E-1,3.2049698E-1,-2.084806E-1,4.6950606E-1,1.4418446E0,6.316739E-1,-1.3122647E-1,8.4617877E-1,6.7550085E-2,-3.480193E-2,9.40724E-1,6.864629E-2,-1.4356667E-1,-1.3369589E-1,1.4116901E-1,7.6114476E-2,-1.2940614E-1,7.723113E-1,7.247585E-1,4.0110776E-1,8.569238E-1,1.1107725E0,7.049107E-1,-1.2965727E-1,8.5711586E-1,-3.02917E-1,2.1725288E-1,-5.581084E-2,-1.4328522E-2,6.8401866E-2,7.8559965E-3,-6.0807645E-2,-2.565192E-1,2.2805536E-1,-1.251708E-2,-6.8594456E-2,1.35254E-1,1.8674761E-2,-3.2327142E-1,-2.1970558E-1,8.0872416E-1,1.4763576E-1,1.956085E-1,7.358136E-1,4.5799488E-1,-6.864909E-2,3.591099E-2,-7.6763653E-3,2.7848069E-2,7.060398E-2,7.2175615E-2,-7.136725E-2,6.891647E-2,1.0807375E-2,2.2511782E-2,-5.729059E-2,-2.385021E-2,2.4885433E-2,5.31089E-2,-1.00674525E-1,-7.120128E-2,2.9847497E-2,-1.7792268E-2,9.3912445E-2,-5.2724756E-2,4.0925838E-2,-7.559778E-2,6.584247E-2,-1.7681407E-2,3.0956984E-2,-4.1703027E-2,-6.558089E-2,1.1528927E-1,-5.1811367E-2,-6.4702444E-2,-1.0248286E-2,5.7691347E-2,-3.3933952E-2,-7.211401E-2,8.664231E-2,-6.366633E-2,3.7630476E-2,-5.866586E-2,-1.533202E-2,-3.2115247E-2,-6.555588E-2,-1.805729E-2,-6.8392076E-2,-4.7252294E-2,-6.485229E-2,-4.6818677E-2,-6.783313E-2],"split_indices":[113,28,21,113,91,6,32,31,67,27,118,19,36,25,32,39,78,57,39,0,0,70,0,114,21,87,45,48,114,116,66,67,118,107,43,39,119,78,57,0,0,57,87,42,114,88,45,88,73,25,3,36,88,114,36,126,0,0,0,0,0,0,0,0,0,0,0,0,0,0,0,0,0,0,0,0,0,0,0,0,0,0,0,0,0,0,0,0,0,0,0,0,0,0,0,0,0,0,0,0,0,0,0],"split_type":[0,0,0,0,0,0,0,0,0,0,0,0,0,0,0,0,0,0,0,0,0,0,0,0,0,0,0,0,0,0,0,0,0,0,0,0,0,0,0,0,0,0,0,0,0,0,0,0,0,0,0,0,0,0,0,0,0,0,0,0,0,0,0,0,0,0,0,0,0,0,0,0,0,0,0,0,0,0,0,0,0,0,0,0,0,0,0,0,0,0,0,0,0,0,0,0,0,0,0,0,0,0,0],"sum_hessian":[1.1918232E5,5.9407754E4,5.9774562E4,1.1977988E3,5.8209957E4,6.707851E2,5.9103777E4,6.249157E2,5.728831E2,6.5358963E0,5.820342E4,4.8482013E2,1.8596498E2,3.534061E3,5.556972E4,4.8200507E2,1.4291061E2,4.8206665E2,9.081649E1,5.458483E0,1.0774134E0,1.2926886E1,5.8190492E4,1.7016127E2,3.1465884E2,1.4423648E2,4.172849E1,1.5225043E1,3.518836E3,2.04879E3,5.3520926E4,4.2501666E2,5.6988422E1,3.6933818E0,1.3921722E2,2.732711E2,2.0879558E2,8.363752E1,7.178973E0,1.6695362E0,1.1257349E1,3.8056835E1,1.3210443E2,5.993968E1,2.5471918E2,1.3772058E2,6.5159006E0,2.3295227E1,1.843326E1,9.117772E0,6.107271E0,2.3386765E3,1.1801594E3,5.46381E2,1.5024089E3,2.5090815E3,5.1011848E4,3.6105548E2,6.3961166E1,1.2864895E0,5.570193E1,2.490779E0,1.2026029E0,1.375023E2,1.7149198E0,2.6442462E2,8.84647E0,1.6438625E2,4.4409325E1,8.215188E1,1.4856364E0,6.0126505E0,1.1663227E0,2.9158491E1,8.898346E0,1.2334775E2,8.756689E0,3.0271745E0,5.6912502E1,1.9360791E2,6.1111267E1,1.3468172E1,1.2425241E2,1.1813353E0,5.334565E0,1.8643742E1,4.6514864E0,8.409097E0,1.0024164E1,1.6326141E0,7.485158E0,4.922902E0,1.184369E0,2.2573325E3,8.134421E1,2.410229E1,1.1560571E3,1.054884E0,5.453261E2,2.4614021E1,1.4777949E3,1.6043743E1,2.4930378E3],"tree_param":{"num_deleted":"0","num_feature":"128","num_nodes":"103","size_leaf_vector":"1"}},{"base_weights":[2.164555E-4,1.3309096E0,-1.323392E0,5.116025E-1,1.3480211E0,-4.4629216E-1,-1.3350686E0,5.9005564E-1,-9.364079E-1,9.502151E-1,1.348061E0,-2.8715387E-2,-6.66097E-1,-1.1757666E0,-1.3457388E0,4.3136695E-1,1.0707397E0,-1.0369866E-1,-1.2098958E0,6.608092E-2,-3.6088187E-2,9.2012405E-1,6.7403786E-2,2.2016259E-1,-1.062001E0,9.904423E-1,-7.056765E-1,-1.1164734E0,-1.2779323E0,-1.3004643E0,-1.3475919E0,3.9698264E-1,1.3543414E0,1.1095283E0,-9.3880254E-1,-1.4962562E0,4.139481E-1,-1.3301803E0,6.2415373E-2,1.8872056E-2,6.0243618E-2,-1.5127493E-1,9.9456084E-1,-1.3043677E0,-0E0,-2.1778195E-1,8.3465576E-2,-1.1319711E0,-5.4750586E-1,-1.1521231E0,-4.8815626E-1,-9.576071E-1,-1.2862691E0,-1.1256276E0,-1.3089123E0,-1.3319626E0,-1.3482181E0,2.2533922E-2,-2.2396386E-2,6.932387E-2,1.6521791E-2,5.7143368E-2,-5.5622734E-2,-7.860697E-2,6.452953E-2,-9.851446E-2,-8.266078E-3,4.4517174E-2,-5.773467E-2,-3.4793314E-2,-6.7940176E-2,6.055035E-2,-5.3914387E-2,-2.7371105E-3,-6.8873145E-2,6.465932E-2,-2.7044395E-2,-6.707225E-2,-1.50248585E-2,-4.326425E-2,9.602874E-2,-6.29109E-2,1.0337406E-1,-5.7804503E-2,6.1115336E-2,-3.4680625E-3,-4.2911127E-2,-3.6812074E-2,-5.839854E-2,-2.4461232E-3,-6.1578162E-2,-1.4615496E-2,-5.8978774E-2,-6.455291E-2,-2.8208911E-2,-6.0319006E-2,7.790696E-2,-6.777277E-2,-6.489863E-2,-6.6740535E-2,-5.1303077E-2,-3.9584696E-2,-6.741185E-2],"categories":[],"categories_nodes":[],"categories_segments":[],"categories_sizes":[],"default_left":[0,0,0,0,0,0,0,0,0,0,0,0,0,0,0,0,0,0,0,0,0,0,0,0,0,0,0,0,0,0,0,0,0,0,0,0,0,0,0,0,0,0,0,0,0,0,0,0,0,0,0,0,0,0,0,0,0,0,0,0,0,0,0,0,0,0,0,0,0,0,0,0,0,0,0,0,0,0,0,0,0,0,0,0,0,0,0,0,0,0,0,0,0,0,0,0,0,0,0,0,0,0,0],"id":13,"left_children":[1,3,5,7,9,11,13,15,17,19,21,23,25,27,29,31,33,35,37,-1,-1,39,-1,41,43,45,47,49,51,53,55,57,59,61,63,65,67,69,71,-1,-1,73,75,77,79,81,-1,83,85,87,89,91,93,95,97,99,101,-1,-1,-1,-1,-1,-1,-1,-1,-1,-1,-1,-1,-1,-1,-1,-1,-1,-1,-1,-1,-1,-1,-1,-1,-1,-1,-1,-1,-1,-1,-1,-1,-1,-1,-1,-1,-1,-1,-1,-1,-1,-1,-1,-1,-1,-1],"loss_changes":[2.0324167E5,8.0646875E2,5.9221875E2,1.3378342E2,5.3125E-1,6.971132E1,9.663281E1,8.501413E1,1.3631866E1,4.0316653E0,7.8125E-3,6.7599464E1,3.268834E1,2.1336426E1,4.0546875E0,2.643422E1,2.1715118E1,1.109462E1,7.0884476E0,0E0,0E0,1.8236208E-1,0E0,6.093834E1,1.30085945E1,9.6978245E0,3.2568787E1,5.0626953E1,3.165039E0,2.724121E0,5.46875E-2,3.6779037E1,7.705765E-1,2.027066E1,7.645808E0,2.391592E0,8.351935E0,4.5503998E-1,5.3167186E0,0E0,0E0,1.6769373E1,3.1629425E1,1.3393936E0,1.61141E1,1.0187373E1,0E0,7.594528E0,5.2665817E1,1.3879639E1,3.977009E1,4.848068E0,4.1728516E0,2.1491417E1,5.822754E-1,1.3647461E0,1.953125E-1,0E0,0E0,0E0,0E0,0E0,0E0,0E0,0E0,0E0,0E0,0E0,0E0,0E0,0E0,0E0,0E0,0E0,0E0,0E0,0E0,0E0,0E0,0E0,0E0,0E0,0E0,0E0,0E0,0E0,0E0,0E0,0E0,0E0,0E0,0E0,0E0,0E0,0E0,0E0,0E0,0E0,0E0,0E0,0E0,0E0,0E0],"parents":[2147483647,0,0,1,1,2,2,3,3,4,4,5,5,6,6,7,7,8,8,9,9,10,10,11,11,12,12,13,13,14,14,15,15,16,16,17,17,18,18,21,21,23,23,24,24,25,25,26,26,27,27,28,28,29,29,30,30,31,31,32,32,33,33,34,34,35,35,36,36,37,37,38,38,41,41,42,42,43,43,44,44,45,45,47,47,48,48,49,49,50,50,51,51,52,52,53,53,54,54,55,55,56,56],"right_children":[2,4,6,8,10,12,14,16,18,20,22,24,26,28,30,32,34,36,38,-1,-1,40,-1,42,44,46,48,50,52,54,56,58,60,62,64,66,68,70,72,-1,-1,74,76,78,80,82,-1,84,86,88,90,92,94,96,98,100,102,-1,-1,-1,-1,-1,-1,-1,-1,-1,-1,-1,-1,-1,-1,-1,-1,-1,-1,-1,-1,-1,-1,-1,-1,-1,-1,-1,-1,-1,-1,-1,-1,-1,-1,-1,-1,-1,-1,-1,-1,-1,-1,-1,-1,-1,-1],"split_conditions":[-1.3139519E-1,-3.294603E-2,3.014542E-1,-2.182665E-1,2.6418656E-2,-6.99234E-3,1.257616E-1,2.5683573E-1,-2.8732365E-1,1.7190512E-1,-2.3577806E-2,-2.9531536E-1,-3.6523804E-1,7.723113E-1,-3.3489645E-2,1.349992E0,4.42299E-1,9.417972E-2,-9.149258E-2,6.608092E-2,-3.6088187E-2,1.6013098E-1,6.7403786E-2,-1.1861506E-1,-1.0302338E-1,2.048811E-1,-2.339378E-2,7.5935656E-1,4.2798927E-1,6.188526E-1,4.0110776E-1,1.070883E0,1.299442E-1,-2.6804549E-1,1.2141982E0,6.5987855E-2,-3.2559678E-2,-2.716002E-1,-4.613173E-2,1.8872056E-2,6.0243618E-2,-6.1392963E-2,-1.4803056E-1,3.7577495E-1,2.5823817E-1,2.8369755E-1,8.3465576E-2,1.9545043E-1,6.058219E-2,2.5917962E-1,4.7618884E-1,3.0639264E-1,8.56016E-1,8.760034E-1,8.945341E-1,8.81356E-1,1.9666618E-1,2.2533922E-2,-2.2396386E-2,6.932387E-2,1.6521791E-2,5.7143368E-2,-5.5622734E-2,-7.860697E-2,6.452953E-2,-9.851446E-2,-8.266078E-3,4.4517174E-2,-5.773467E-2,-3.4793314E-2,-6.7940176E-2,6.055035E-2,-5.3914387E-2,-2.7371105E-3,-6.8873145E-2,6.465932E-2,-2.7044395E-2,-6.707225E-2,-1.50248585E-2,-4.326425E-2,9.602874E-2,-6.29109E-2,1.0337406E-1,-5.7804503E-2,6.1115336E-2,-3.4680625E-3,-4.2911127E-2,-3.6812074E-2,-5.839854E-2,-2.4461232E-3,-6.1578162E-2,-1.4615496E-2,-5.8978774E-2,-6.455291E-2,-2.8208911E-2,-6.0319006E-2,7.790696E-2,-6.777277E-2,-6.489863E-2,-6.6740535E-2,-5.1303077E-2,-3.9584696E-2,-6.741185E-2],"split_indices":[60,28,116,73,91,60,32,121,90,8,28,96,114,114,66,39,106,100,67,0,0,8,0,76,39,18,9,114,1,1,66,118,27,76,118,9,45,90,89,0,0,45,73,93,93,60,0,27,15,1,19,82,76,113,93,86,113,0,0,0,0,0,0,0,0,0,0,0,0,0,0,0,0,0,0,0,0,0,0,0,0,0,0,0,0,0,0,0,0,0,0,0,0,0,0,0,0,0,0,0,0,0,0],"split_type":[0,0,0,0,0,0,0,0,0,0,0,0,0,0,0,0,0,0,0,0,0,0,0,0,0,0,0,0,0,0,0,0,0,0,0,0,0,0,0,0,0,0,0,0,0,0,0,0,0,0,0,0,0,0,0,0,0,0,0,0,0,0,0,0,0,0,0,0,0,0,0,0,0,0,0,0,0,0,0,0,0,0,0,0,0,0,0,0,0,0,0,0,0,0,0,0,0,0,0,0,0,0,0],"sum_hessian":[1.15391695E5,5.7541887E4,5.7849805E4,1.1773793E3,5.6364508E4,7.601814E2,5.7089625E4,1.1169893E3,6.0390106E1,6.1422324E0,5.6358363E4,2.6234894E2,4.9783246E2,3.5851475E3,5.3504477E4,8.400579E2,2.769313E2,1.5054896E1,4.533521E1,5.0919104E0,1.0503218E0,2.3983817E0,5.6355965E4,2.1141037E2,5.093855E1,1.1502064E1,4.8633038E2,2.2699336E3,1.315214E3,2.108752E3,5.1395727E4,8.101289E2,2.992902E1,2.717799E2,5.151403E0,4.08085E0,1.0974047E1,4.1487064E1,3.8481433E0,1.0262535E0,1.3721284E0,1.4284607E2,6.85643E1,4.1379524E1,9.559027E0,4.1092324E0,7.392831E0,1.3127522E2,3.5505518E2,2.1478267E3,1.2210693E2,3.3959526E1,1.2812544E3,9.8361206E1,2.0103906E3,1.9943002E3,4.9401426E4,7.618752E2,4.8253735E1,2.8889236E1,1.0397843E0,2.6785455E2,3.9253564E0,4.0696216E0,1.0817814E0,2.918285E0,1.1625652E0,8.499687E0,2.474359E0,2.0513902E0,3.9435673E1,1.9580522E0,1.8900912E0,1.3259355E2,1.0252525E1,5.7468338E1,1.1095965E1,3.977714E1,1.6023816E0,6.6632195E0,2.8958068E0,2.884621E0,1.2246114E0,1.300364E2,1.2388184E0,1.4002408E2,2.1503108E2,7.924675E1,2.0685798E3,7.690787E1,4.519907E1,8.666367E0,2.5293158E1,1.2725969E3,8.657575E0,9.557765E1,2.7835517E0,3.7852258E2,1.631868E3,1.9752468E3,1.9053356E1,1.9931699E0,4.9399434E4],"tree_param":{"num_deleted":"0","num_feature":"128","num_nodes":"103","size_leaf_vector":"1"}},{"base_weights":[-7.764238E-5,1.3078043E0,-1.3003141E0,4.8694122E-1,1.3252392E0,-4.493333E-1,-1.311956E0,5.675744E-1,-8.6856765E-1,1.0439926E0,1.3253196E0,-1.2003798E-1,-7.465922E-1,-1.1531543E0,-1.3227488E0,4.3025705E-1,1.0683471E0,7.4844345E-2,-9.8507476E-1,6.589482E-2,6.87893E-1,1.0663922E0,6.6268496E-2,-4.3083355E-1,4.6231413E-1,-1.0278307E0,-3.9513415E-1,-1.0935732E0,-1.255434E0,-1.2703815E0,-1.3249178E0,3.665218E-1,1.0528644E0,1.0992817E0,-9.696468E-1,-6.891371E-1,-1.307237E0,6.5017045E-2,-4.9724013E-2,-5.3737372E-2,6.5561235E-2,-1.4055842E-1,-8.4226E-1,8.6628187E-1,-1.1220529E0,-8.844231E-1,-1.3166717E0,4.427185E-1,-1.0229614E0,-1.1272049E0,-5.589732E-1,4.4554403E-1,-1.2601686E0,-1.0896219E0,-1.2799251E0,-1.312305E0,-6.628168E-2,2.319195E-2,-1.658363E-2,6.637902E-2,-2.9727537E-2,5.64281E-2,-2.1176642E-2,2.0006364E-2,-8.76823E-2,-4.7912456E-2,4.487891E-2,-2.1006012E-2,-6.8143636E-2,-1.3302768E-2,5.4838624E-2,-6.26446E-2,-1.614682E-2,5.101582E-2,-4.649132E-2,-6.380072E-2,1.89713E-2,-5.8777537E-2,-2.8189529E-2,-6.748615E-2,2.819084E-2,3.8615346E-2,-6.2257875E-2,1.440164E-2,-5.696974E-2,-5.6448724E-2,1.0807818E-1,-5.1971376E-2,-6.371359E-3,1.1890228E-1,-4.3129276E-2,-6.3260816E-2,-4.0399816E-2,-5.6466192E-2,6.2167108E-2,-6.603538E-2,-6.329095E-2,-6.611728E-2,-6.2833615E-2],"categories":[],"categories_nodes":[],"categories_segments":[],"categories_sizes":[],"default_left":[0,0,0,0,0,0,0,0,0,0,0,0,0,0,0,0,0,0,0,0,0,0,0,0,0,0,0,0,0,0,0,0,0,0,0,0,0,0,0,0,0,0,0,0,0,0,0,0,0,0,0,0,0,0,0,0,0,0,0,0,0,0,0,0,0,0,0,0,0,0,0,0,0,0,0,0,0,0,0,0,0,0,0,0,0,0,0,0,0,0,0,0,0,0,0,0,0,0,0],"id":14,"left_children":[1,3,5,7,9,11,13,15,17,19,21,23,25,27,29,31,33,-1,35,-1,37,39,-1,41,43,45,47,49,51,53,55,57,59,61,63,65,67,-1,-1,-1,-1,69,71,73,75,77,79,81,83,85,87,89,91,93,95,97,-1,-1,-1,-1,-1,-1,-1,-1,-1,-1,-1,-1,-1,-1,-1,-1,-1,-1,-1,-1,-1,-1,-1,-1,-1,-1,-1,-1,-1,-1,-1,-1,-1,-1,-1,-1,-1,-1,-1,-1,-1,-1,-1],"loss_changes":[1.9026103E5,7.980078E2,5.5559375E2,1.26841095E2,8.59375E-1,7.4048935E1,9.446094E1,7.512253E1,1.8041985E1,1.3135948E0,3.359375E-1,6.510945E1,3.9148438E1,2.109961E1,5.4609375E0,3.3942764E1,1.4965637E1,0E0,5.6366806E0,0E0,7.9096556E0,6.1966734E0,0E0,2.791446E1,8.0129585E1,8.81015E0,9.3313576E1,3.9825684E1,1.0572632E1,3.1865234E0,7.8125E-3,5.3051422E1,3.6201675E1,1.0465515E1,3.9918578E0,1.4086007E1,1.2198563E0,0E0,0E0,0E0,0E0,2.1351532E1,2.0468018E1,2.7708664E1,6.0112877E0,1.3583534E1,4.6809845E0,4.227473E1,1.55948715E1,1.2338379E1,2.7288193E1,9.487242E0,2.6398926E0,9.834335E0,7.023926E-1,1.078125E0,0E0,0E0,0E0,0E0,0E0,0E0,0E0,0E0,0E0,0E0,0E0,0E0,0E0,0E0,0E0,0E0,0E0,0E0,0E0,0E0,0E0,0E0,0E0,0E0,0E0,0E0,0E0,0E0,0E0,0E0,0E0,0E0,0E0,0E0,0E0,0E0,0E0,0E0,0E0,0E0,0E0,0E0,0E0],"parents":[2147483647,0,0,1,1,2,2,3,3,4,4,5,5,6,6,7,7,8,8,9,9,10,10,11,11,12,12,13,13,14,14,15,15,16,16,18,18,20,20,21,21,23,23,24,24,25,25,26,26,27,27,28,28,29,29,30,30,31,31,32,32,33,33,34,34,35,35,36,36,41,41,42,42,43,43,44,44,45,45,46,46,47,47,48,48,49,49,50,50,51,51,52,52,53,53,54,54,55,55],"right_children":[2,4,6,8,10,12,14,16,18,20,22,24,26,28,30,32,34,-1,36,-1,38,40,-1,42,44,46,48,50,52,54,56,58,60,62,64,66,68,-1,-1,-1,-1,70,72,74,76,78,80,82,84,86,88,90,92,94,96,98,-1,-1,-1,-1,-1,-1,-1,-1,-1,-1,-1,-1,-1,-1,-1,-1,-1,-1,-1,-1,-1,-1,-1,-1,-1,-1,-1,-1,-1,-1,-1,-1,-1,-1,-1,-1,-1,-1,-1,-1,-1,-1,-1],"split_conditions":[-1.3139519E-1,-3.294603E-2,3.014542E-1,-2.9815727E-1,7.2394907E-3,1.5436286E-1,1.257616E-1,2.8634205E-1,-4.565981E-2,2.6989004E-1,2.9251963E-2,9.44784E-2,9.609616E-2,7.723113E-1,-3.3489645E-2,-2.1466947E-1,-2.6804549E-1,7.4844345E-2,-8.2917884E-2,6.589482E-2,5.6636482E-3,5.700908E-1,6.6268496E-2,-1.4356667E-1,1.3390529E-1,-2.7724057E-2,1.6954988E-1,7.5935656E-1,-1.251708E-2,6.245122E-1,6.151719E-1,-1.8419617E-1,1.529117E-1,4.42299E-1,3.8538036E-1,-1.08631104E-1,-8.7953135E-2,6.5017045E-2,-4.9724013E-2,-5.3737372E-2,6.5561235E-2,3.2458603E-3,-1.7963442E-1,3.6238134E-4,1.8896544E-1,-2.8368753E-1,3.3014503E-1,-1.1919558E-2,1.1951992E-1,6.540754E-1,7.8834677E-1,4.4734398E-1,8.429019E-1,8.760034E-1,9.298103E-1,1.0398432E0,-6.628168E-2,2.319195E-2,-1.658363E-2,6.637902E-2,-2.9727537E-2,5.64281E-2,-2.1176642E-2,2.0006364E-2,-8.76823E-2,-4.7912456E-2,4.487891E-2,-2.1006012E-2,-6.8143636E-2,-1.3302768E-2,5.4838624E-2,-6.26446E-2,-1.614682E-2,5.101582E-2,-4.649132E-2,-6.380072E-2,1.89713E-2,-5.8777537E-2,-2.8189529E-2,-6.748615E-2,2.819084E-2,3.8615346E-2,-6.2257875E-2,1.440164E-2,-5.696974E-2,-5.6448724E-2,1.0807818E-1,-5.1971376E-2,-6.371359E-3,1.1890228E-1,-4.3129276E-2,-6.3260816E-2,-4.0399816E-2,-5.6466192E-2,6.2167108E-2,-6.603538E-2,-6.329095E-2,-6.611728E-2,-6.2833615E-2],"split_indices":[60,28,116,3,28,6,32,121,100,106,118,93,76,114,66,25,76,0,56,0,107,63,0,114,38,119,42,114,88,1,86,68,127,106,39,49,72,0,0,0,0,57,38,127,36,3,48,72,76,113,93,21,76,113,36,1,0,0,0,0,0,0,0,0,0,0,0,0,0,0,0,0,0,0,0,0,0,0,0,0,0,0,0,0,0,0,0,0,0,0,0,0,0,0,0,0,0,0,0],"split_type":[0,0,0,0,0,0,0,0,0,0,0,0,0,0,0,0,0,0,0,0,0,0,0,0,0,0,0,0,0,0,0,0,0,0,0,0,0,0,0,0,0,0,0,0,0,0,0,0,0,0,0,0,0,0,0,0,0,0,0,0,0,0,0,0,0,0,0,0,0,0,0,0,0,0,0,0,0,0,0,0,0,0,0,0,0,0,0,0,0,0,0,0,0,0,0,0,0,0,0],"sum_hessian":[1.1188147E5,5.577671E4,5.6104758E4,1.160221E3,5.461649E4,7.573582E2,5.5347402E4,1.095204E3,6.50169E1,1.6353565E1,5.4600137E4,3.5954306E2,3.9781516E2,3.5234856E3,5.1823914E4,8.598181E2,2.3538591E2,2.9560866E0,6.206081E1,8.932206E0,7.4213595E0,1.1406796E1,5.458873E4,2.3455898E2,1.2498408E2,2.2071834E2,1.7709683E2,2.2278455E3,1.29564E3,2.0653855E3,4.975853E4,7.8026337E2,7.9554726E1,2.3196013E2,3.4257762E0,3.2672356E1,2.9388456E1,5.500952E0,1.9204081E0,1.0937948E0,1.0313002E1,1.3774939E2,9.6809586E1,9.967761E1,2.5306467E1,1.4799316E2,7.2725174E1,7.580422E1,1.0129261E2,2.0957068E3,1.3213867E2,3.5118291E0,1.2921283E3,1.0468284E2,1.9607026E3,